{"learner":{"attributes":{"best_iteration":"104","best_score":"825.3192956039621","scikit_learn":"{\"_estimator_type\": \"regressor\"}"},"feature_names":["storage_mcm","hour","day_of_week","month","price_lag_24h"],"feature_types":["float","float","float","float","float"],"gradient_booster":{"model":{"gbtree_model_param":{"num_parallel_tree":"1","num_trees":"120"},"iteration_indptr":[0,1,2,3,4,5,6,7,8,9,10,11,12,13,14,15,16,17,18,19,20,21,22,23,24,25,26,27,28,29,30,31,32,33,34,35,36,37,38,39,40,41,42,43,44,45,46,47,48,49,50,51,52,53,54,55,56,57,58,59,60,61,62,63,64,65,66,67,68,69,70,71,72,73,74,75,76,77,78,79,80,81,82,83,84,85,86,87,88,89,90,91,92,93,94,95,96,97,98,99,100,101,102,103,104,105,106,107,108,109,110,111,112,113,114,115,116,117,118,119,120],"tree_info":[0,0,0,0,0,0,0,0,0,0,0,0,0,0,0,0,0,0,0,0,0,0,0,0,0,0,0,0,0,0,0,0,0,0,0,0,0,0,0,0,0,0,0,0,0,0,0,0,0,0,0,0,0,0,0,0,0,0,0,0,0,0,0,0,0,0,0,0,0,0,0,0,0,0,0,0,0,0,0,0,0,0,0,0,0,0,0,0,0,0,0,0,0,0,0,0,0,0,0,0,0,0,0,0,0,0,0,0,0,0,0,0,0,0,0,0,0,0,0,0],"trees":[{"base_weights":[7.7587624E0,-1.5454204E3,3.6851091E3,-2.3169827E3,-2.3095528E2,2.2709646E3,4.439098E3,-2.8106724E3,-1.8701437E3,-7.6397156E2,4.501859E2,2.6152244E3,2.6862808E2,3.7923489E3,5.36458E3,-3.0648794E3,-2.582547E3,-1.7561589E3,-2.5394167E3,2.4981017E2,-9.421101E2,6.9751715E2,-1.0349098E3,2.1566738E3,3.1676406E3,1.2394105E3,-7.746512E1,4.099112E3,2.2202073E3,5.7266553E3,3.704361E3,-1.5042703E2,-1.7539134E2,-1.2479348E2,-1.567908E2,-9.86277E1,-7.461712E1,-1.4199783E2,-1.05928444E2,-4.695077E1,5.891926E1,-3.8563007E1,-8.72688E1,1.935504E1,6.646579E1,-7.0458046E1,-4.1334248E1,1.7116997E2,9.436382E1,2.1621309E2,1.5020073E2,8.383166E1,1.7099196E0,-1.033943E1,4.163204E1,1.9601517E2,2.3258276E2,1.3055113E2,4.5478085E1,1.4571666E2,2.8848593E2,2.3355762E2,1.1667985E2],"categories":[],"categories_nodes":[],"categories_segments":[],"categories_sizes":[],"default_left":[0,0,0,0,0,0,0,0,0,0,0,0,0,0,0,0,0,0,0,0,0,0,0,0,0,0,0,0,0,0,0,0,0,0,0,0,0,0,0,0,0,0,0,0,0,0,0,0,0,0,0,0,0,0,0,0,0,0,0,0,0,0,0],"id":0,"left_children":[1,3,5,7,9,11,13,15,17,19,21,23,25,27,29,31,33,35,37,39,41,43,45,47,49,51,53,55,57,59,61,-1,-1,-1,-1,-1,-1,-1,-1,-1,-1,-1,-1,-1,-1,-1,-1,-1,-1,-1,-1,-1,-1,-1,-1,-1,-1,-1,-1,-1,-1,-1,-1],"loss_changes":[6.3935455E10,7.981152E9,3.5341353E9,1.0887004E9,1.0575728E9,7.975342E8,1.2767232E9,1.2859597E8,1.9434496E8,2.953252E8,4.7051203E8,2.434391E8,5.754879E7,6.0772966E8,5.1318784E8,1.709568E7,5.1974656E7,1.2436326E8,4.1666816E7,2.715654E8,1.8941466E8,2.1462976E8,1.3095968E7,1.788393E8,7.141683E7,2.3655232E7,1.5119833E7,8.737997E7,1.0570355E8,7.135232E7,2.037888E8,0E0,0E0,0E0,0E0,0E0,0E0,0E0,0E0,0E0,0E0,0E0,0E0,0E0,0E0,0E0,0E0,0E0,0E0,0E0,0E0,0E0,0E0,0E0,0E0,0E0,0E0,0E0,0E0,0E0,0E0,0E0,0E0],"parents":[2147483647,0,0,1,1,2,2,3,3,4,4,5,5,6,6,7,7,8,8,9,9,10,10,11,11,12,12,13,13,14,14,15,15,16,16,17,17,18,18,19,19,20,20,21,21,22,22,23,23,24,24,25,25,26,26,27,27,28,28,29,29,30,30],"right_children":[2,4,6,8,10,12,14,16,18,20,22,24,26,28,30,32,34,36,38,40,42,44,46,48,50,52,54,56,58,60,62,-1,-1,-1,-1,-1,-1,-1,-1,-1,-1,-1,-1,-1,-1,-1,-1,-1,-1,-1,-1,-1,-1,-1,-1,-1,-1,-1,-1,-1,-1,-1,-1],"split_conditions":[6.84938E3,4.33019E3,1E4,3.34806E3,5.40318E3,6E0,1.199986E4,2.86609E3,6E0,1E0,6E0,8.34316E3,5E0,6E0,6E0,6E0,6E0,3.82574E3,3.90235E3,9E0,6E0,1.8E1,5.86292E3,1E0,1E0,2.486E0,2.2E1,1.011701E4,1.011701E4,8.6E-1,1.067E0,-1.5042703E2,-1.7539134E2,-1.2479348E2,-1.567908E2,-9.86277E1,-7.461712E1,-1.4199783E2,-1.05928444E2,-4.695077E1,5.891926E1,-3.8563007E1,-8.72688E1,1.935504E1,6.646579E1,-7.0458046E1,-4.1334248E1,1.7116997E2,9.436382E1,2.1621309E2,1.5020073E2,8.383166E1,1.7099196E0,-1.033943E1,4.163204E1,1.9601517E2,2.3258276E2,1.3055113E2,4.5478085E1,1.4571666E2,2.8848593E2,2.3355762E2,1.1667985E2],"split_indices":[4,4,4,4,4,2,4,4,2,2,2,4,1,2,2,2,2,4,4,1,2,1,4,2,2,0,1,4,4,0,0,0,0,0,0,0,0,0,0,0,0,0,0,0,0,0,0,0,0,0,0,0,0,0,0,0,0,0,0,0,0,0,0],"split_type":[0,0,0,0,0,0,0,0,0,0,0,0,0,0,0,0,0,0,0,0,0,0,0,0,0,0,0,0,0,0,0,0,0,0,0,0,0,0,0,0,0,0,0,0,0,0,0,0,0,0,0,0,0,0,0,0,0,0,0,0,0,0,0],"sum_hessian":[1.1192E4,7.869E3,3.323E3,4.958E3,2.911E3,1.157E3,2.166E3,2.353E3,2.605E3,1.633E3,1.278E3,9.87E2,1.7E2,1.278E3,8.88E2,1.107E3,1.246E3,2.229E3,3.76E2,2.44E2,1.389E3,1.096E3,1.82E2,5.42E2,4.45E2,4.4E1,1.26E2,1.068E3,2.1E2,7.27E2,1.61E2,9.89E2,1.18E2,1.082E3,1.64E2,1.221E3,1.008E3,2.16E2,1.6E2,1.07E2,1.37E2,1.147E3,2.42E2,7.36E2,3.6E2,6.3E1,1.19E2,9.3E1,4.49E2,5.2E1,3.93E2,3.2E1,1.2E1,1.11E2,1.5E1,8.13E2,2.55E2,1.61E2,4.9E1,1.2E1,7.15E2,9.3E1,6.8E1],"tree_param":{"num_deleted":"0","num_feature":"5","num_nodes":"63","size_leaf_vector":"1"}},{"base_weights":[-1.02416725E1,-1.4714042E3,3.4615571E3,-2.150578E3,-1.2070301E2,2.1357717E3,4.178984E3,-2.6072996E3,-1.6869261E3,-6.137215E2,4.082587E2,2.44409E3,1.9845273E2,3.5638416E3,5.0772646E3,-2.8382866E3,-2.3317712E3,-1.5738668E3,-2.3265586E3,3.2168622E2,-7.802031E2,6.3037976E2,-9.6025256E2,1.9953872E3,3.014898E3,1.2242157E3,-9.387734E1,3.8806355E3,1.9587775E3,2.7160764E2,3.4674695E3,-1.3878633E2,-1.6488976E2,-9.143615E1,-1.2116176E2,-8.8083466E1,-6.389004E1,-1.3280888E2,-1.0103659E2,-4.3150803E1,6.436272E1,-3.1247562E1,-7.564251E1,8.503196E1,2.3054213E1,-6.749014E1,-3.7114376E1,1.6256218E2,8.635905E1,2.1769392E2,1.4224919E2,2.516657E1,8.04894E1,-2.3343206E1,3.9599144E1,1.8715413E2,2.1897964E2,1.1501935E2,4.2514706E1,2.2444962E2,1.3058618E2],"categories":[],"categories_nodes":[],"categories_segments":[],"categories_sizes":[],"default_left":[0,0,0,0,0,0,0,0,0,0,0,0,0,0,0,0,0,0,0,0,0,0,0,0,0,0,0,0,0,0,0,0,0,0,0,0,0,0,0,0,0,0,0,0,0,0,0,0,0,0,0,0,0,0,0,0,0,0,0,0,0],"id":1,"left_children":[1,3,5,7,9,11,13,15,17,19,21,23,25,27,29,31,33,35,37,39,41,43,45,47,49,51,53,55,57,-1,59,-1,-1,-1,-1,-1,-1,-1,-1,-1,-1,-1,-1,-1,-1,-1,-1,-1,-1,-1,-1,-1,-1,-1,-1,-1,-1,-1,-1,-1,-1],"loss_changes":[5.706465E10,7.2624855E9,3.160318E9,1.1111506E9,6.913385E8,6.995635E8,1.1760108E9,1.6216474E8,1.8559027E8,2.1391005E8,3.893895E8,2.5292493E8,4.8692468E7,6.462966E8,4.81622E8,3.218432E7,5.147187E7,1.215744E8,3.404787E7,2.3904435E8,1.3156723E8,1.9870618E8,1.4196656E7,1.8604032E8,8.840064E7,9.196052E6,4.2332348E7,5.7250816E7,7.907904E7,0E0,1.2901645E8,0E0,0E0,0E0,0E0,0E0,0E0,0E0,0E0,0E0,0E0,0E0,0E0,0E0,0E0,0E0,0E0,0E0,0E0,0E0,0E0,0E0,0E0,0E0,0E0,0E0,0E0,0E0,0E0,0E0,0E0],"parents":[2147483647,0,0,1,1,2,2,3,3,4,4,5,5,6,6,7,7,8,8,9,9,10,10,11,11,12,12,13,13,14,14,15,15,16,16,17,17,18,18,19,19,20,20,21,21,22,22,23,23,24,24,25,25,26,26,27,27,28,28,30,30],"right_children":[2,4,6,8,10,12,14,16,18,20,22,24,26,28,30,32,34,36,38,40,42,44,46,48,50,52,54,56,58,-1,60,-1,-1,-1,-1,-1,-1,-1,-1,-1,-1,-1,-1,-1,-1,-1,-1,-1,-1,-1,-1,-1,-1,-1,-1,-1,-1,-1,-1,-1,-1],"split_conditions":[6.84938E3,4.47221E3,1E4,3.425E3,5.40318E3,6E0,1.199986E4,2.99977E3,6E0,1E0,6E0,8.34316E3,5E0,6E0,6E0,6E0,1E0,3.99965E3,3.88605E3,9E0,6E0,1E0,5.86292E3,1E0,1E0,7.53095E3,2E1,1.031441E4,1.011701E4,2.7160764E2,1.6E1,-1.3878633E2,-1.6488976E2,-9.143615E1,-1.2116176E2,-8.8083466E1,-6.389004E1,-1.3280888E2,-1.0103659E2,-4.3150803E1,6.436272E1,-3.1247562E1,-7.564251E1,8.503196E1,2.3054213E1,-6.749014E1,-3.7114376E1,1.6256218E2,8.635905E1,2.1769392E2,1.4224919E2,2.516657E1,8.04894E1,-2.3343206E1,3.9599144E1,1.8715413E2,2.1897964E2,1.1501935E2,4.2514706E1,2.2444962E2,1.3058618E2],"split_indices":[4,4,4,4,4,2,4,4,2,2,2,4,1,2,2,2,2,4,4,1,2,2,4,2,2,4,1,4,4,0,1,0,0,0,0,0,0,0,0,0,0,0,0,0,0,0,0,0,0,0,0,0,0,0,0,0,0,0,0,0,0],"split_type":[0,0,0,0,0,0,0,0,0,0,0,0,0,0,0,0,0,0,0,0,0,0,0,0,0,0,0,0,0,0,0,0,0,0,0,0,0,0,0,0,0,0,0,0,0,0,0,0,0,0,0,0,0,0,0,0,0,0,0,0,0],"sum_hessian":[1.1247E4,7.916E3,3.331E3,5.267E3,2.649E3,1.171E3,2.16E3,2.651E3,2.616E3,1.371E3,1.278E3,1.01E3,1.61E2,1.285E3,8.75E2,1.437E3,1.214E3,2.226E3,3.9E2,2.07E2,1.164E3,1.1E3,1.78E2,5.68E2,4.42E2,3.5E1,1.26E2,1.072E3,2.13E2,7.15E2,1.6E2,1.271E3,1.66E2,1.9E2,1.024E3,1.359E3,8.67E2,1.84E2,2.06E2,9.3E1,1.14E2,9.62E2,2.02E2,1.49E2,9.51E2,6.2E1,1.16E2,9.8E1,4.7E2,4.7E1,3.95E2,1.3E1,2.2E1,8.9E1,3.7E1,8.47E2,2.25E2,1.62E2,5.1E1,7.1E1,8.9E1],"tree_param":{"num_deleted":"0","num_feature":"5","num_nodes":"61","size_leaf_vector":"1"}},{"base_weights":[1.4984169E0,-1.4613344E3,3.1096604E3,-2.1348684E3,-3.7750317E2,1.8137688E3,3.968535E3,-2.533299E3,-1.7566965E3,-8.237936E2,2.0830896E2,2.0955383E3,1.1980164E2,3.3898718E3,4.8386484E3,-2.745867E3,-2.3359165E3,-1.0926632E3,-1.8670007E3,-2.0363993E1,-9.7126575E2,4.1629248E2,-1.0372959E3,1.5975497E3,2.6987007E3,-9.333948E2,3.4967422E2,3.6652722E3,1.9468921E3,5.179433E3,3.2217185E3,-1.3307823E2,-1.5173767E2,-1.1264553E2,-1.4227963E2,-1.8259779E1,-6.913804E1,-8.788708E1,-1.1816829E2,-1.8504444E1,2.3831587E1,-4.160769E1,-8.184102E1,7.241036E1,1.1988555E1,-6.210908E1,-2.9628996E1,1.5301158E2,6.805386E1,1.842122E2,1.2633355E2,-7.268779E1,-3.286642E1,5.3300354E1,5.964594E0,1.7617558E2,2.0482812E2,1.166816E2,3.7861782E1,1.0753979E2,2.6165332E2,2.1231792E2,9.2921196E1],"categories":[],"categories_nodes":[],"categories_segments":[],"categories_sizes":[],"default_left":[0,0,0,0,0,0,0,0,0,0,0,0,0,0,0,0,0,0,0,0,0,0,0,0,0,0,0,0,0,0,0,0,0,0,0,0,0,0,0,0,0,0,0,0,0,0,0,0,0,0,0,0,0,0,0,0,0,0,0,0,0,0,0],"id":2,"left_children":[1,3,5,7,9,11,13,15,17,19,21,23,25,27,29,31,33,35,37,39,41,43,45,47,49,51,53,55,57,59,61,-1,-1,-1,-1,-1,-1,-1,-1,-1,-1,-1,-1,-1,-1,-1,-1,-1,-1,-1,-1,-1,-1,-1,-1,-1,-1,-1,-1,-1,-1,-1,-1],"loss_changes":[5.0905092E10,5.5566633E9,3.98071E9,7.0296986E8,7.6332186E8,6.822999E8,1.0681426E9,8.94167E7,1.7462835E8,1.9630746E8,3.2763126E8,3.6394035E8,4.9957084E7,5.08288E8,4.560937E8,1.8565632E7,4.397568E7,7.251366E7,1.0794445E8,4.501983E7,1.2825907E8,1.9692662E8,1.5755888E7,2.2896077E8,8.4448E7,4.359606E6,2.7762978E7,5.208576E7,9.485133E7,1.0358579E8,2.044352E8,0E0,0E0,0E0,0E0,0E0,0E0,0E0,0E0,0E0,0E0,0E0,0E0,0E0,0E0,0E0,0E0,0E0,0E0,0E0,0E0,0E0,0E0,0E0,0E0,0E0,0E0,0E0,0E0,0E0,0E0,0E0,0E0],"parents":[2147483647,0,0,1,1,2,2,3,3,4,4,5,5,6,6,7,7,8,8,9,9,10,10,11,11,12,12,13,13,14,14,15,15,16,16,17,17,18,18,19,19,20,20,21,21,22,22,23,23,24,24,25,25,26,26,27,27,28,28,29,29,30,30],"right_children":[2,4,6,8,10,12,14,16,18,20,22,24,26,28,30,32,34,36,38,40,42,44,46,48,50,52,54,56,58,60,62,-1,-1,-1,-1,-1,-1,-1,-1,-1,-1,-1,-1,-1,-1,-1,-1,-1,-1,-1,-1,-1,-1,-1,-1,-1,-1,-1,-1,-1,-1,-1,-1],"split_conditions":[6.45716E3,4.19258E3,1E4,3.31707E3,5.20167E3,6E0,1.199986E4,2.86609E3,1E0,1E0,6E0,8.00011E3,6.84938E3,6E0,6E0,5E0,6E0,9.14E-1,6E0,4.77557E3,6E0,1E0,5.99554E3,1E0,1E0,8.94E-1,4E0,1.011701E4,1.011701E4,8.6E-1,1.067E0,-1.3307823E2,-1.5173767E2,-1.1264553E2,-1.4227963E2,-1.8259779E1,-6.913804E1,-8.788708E1,-1.1816829E2,-1.8504444E1,2.3831587E1,-4.160769E1,-8.184102E1,7.241036E1,1.1988555E1,-6.210908E1,-2.9628996E1,1.5301158E2,6.805386E1,1.842122E2,1.2633355E2,-7.268779E1,-3.286642E1,5.3300354E1,5.964594E0,1.7617558E2,2.0482812E2,1.166816E2,3.7861782E1,1.0753979E2,2.6165332E2,2.1231792E2,9.2921196E1],"split_indices":[4,4,4,4,4,2,4,4,2,2,2,4,4,2,2,2,2,0,2,4,2,2,4,2,2,0,3,4,4,0,0,0,0,0,0,0,0,0,0,0,0,0,0,0,0,0,0,0,0,0,0,0,0,0,0,0,0,0,0,0,0,0,0],"split_type":[0,0,0,0,0,0,0,0,0,0,0,0,0,0,0,0,0,0,0,0,0,0,0,0,0,0,0,0,0,0,0,0,0,0,0,0,0,0,0,0,0,0,0,0,0,0,0,0,0,0,0,0,0,0,0,0,0,0,0,0,0,0,0],"sum_hessian":[1.1194E4,7.612E3,3.582E3,4.694E3,2.918E3,1.429E3,2.153E3,2.283E3,2.411E3,1.656E3,1.262E3,1.225E3,2.04E2,1.296E3,8.57E2,1.093E3,1.19E3,3.45E2,2.066E3,2.57E2,1.399E3,1.082E3,1.8E2,6.73E2,5.52E2,3.6E1,1.68E2,1.087E3,2.09E2,7.06E2,1.51E2,8.54E2,2.39E2,1.028E3,1.62E2,9.9E1,2.46E2,1.697E3,3.69E2,1.51E2,1.06E2,1.159E3,2.4E2,1.57E2,9.25E2,1.22E2,5.8E1,9.2E1,5.81E2,7.9E1,4.73E2,1.1E1,2.5E1,4E1,1.28E2,8.25E2,2.62E2,1.57E2,5.2E1,1.3E1,6.93E2,8.5E1,6.6E1],"tree_param":{"num_deleted":"0","num_feature":"5","num_nodes":"63","size_leaf_vector":"1"}},{"base_weights":[-1.8522598E1,-1.3377678E3,3.1452764E3,-1.9523928E3,-1.077787E2,2.5283657E3,4.4696064E3,-2.3657478E3,-1.538612E3,-6.266718E2,2.9382635E2,1.786535E3,3.065224E3,5.0441504E3,4.1004536E3,-2.640807E3,-2.170564E3,-1.7686979E3,-1.2905508E3,-7.5908875E2,-2.459256E2,6.103962E1,8.1822565E2,1.469831E3,2.17763E3,2.1856838E3,3.091246E3,1.9370319E3,2.5916513E2,3.534426E3,4.2864834E3,-1.3453302E2,-1.0925398E2,-1.16273094E2,-1.03884315E2,-9.102328E1,-7.886771E1,-6.922096E1,-5.1403236E1,-4.715831E1,-2.8173971E1,4.8386245E0,-3.8991932E1,-1.2101401E1,1.9803988E1,4.4853645E1,6.302493E0,5.6492634E1,9.561078E1,1.1955668E2,9.5907906E1,1.6385205E0,1.2087728E2,1.5611378E2,1.1886139E2,1.4439452E2,6.380144E1,1.4743993E2,1.9381604E2,2.1501155E2,1.0602053E2],"categories":[],"categories_nodes":[],"categories_segments":[],"categories_sizes":[],"default_left":[0,0,0,0,0,0,0,0,0,0,0,0,0,0,0,0,0,0,0,0,0,0,0,0,0,0,0,0,0,0,0,0,0,0,0,0,0,0,0,0,0,0,0,0,0,0,0,0,0,0,0,0,0,0,0,0,0,0,0,0,0],"id":3,"left_children":[1,3,5,7,9,11,13,15,17,19,21,23,25,27,29,31,33,35,37,39,41,43,45,47,49,51,53,55,-1,57,59,-1,-1,-1,-1,-1,-1,-1,-1,-1,-1,-1,-1,-1,-1,-1,-1,-1,-1,-1,-1,-1,-1,-1,-1,-1,-1,-1,-1,-1,-1],"loss_changes":[4.6876275E10,5.9917025E9,2.6888643E9,9.002967E8,5.507508E8,8.933929E8,2.0180378E8,1.3611008E8,1.486249E8,5.7944384E7,1.8183914E8,1.1446758E8,2.3180288E7,1.6549786E8,5.266125E7,1.8930176E7,1.7481728E7,1.0688768E7,3.0016384E7,3.0254752E7,5.4783788E7,1.049865E8,2.4882816E7,7.725133E7,1.884672E7,2.0387088E7,2.0670464E7,8.256856E6,0E0,2.16064E7,5.17632E6,0E0,0E0,0E0,0E0,0E0,0E0,0E0,0E0,0E0,0E0,0E0,0E0,0E0,0E0,0E0,0E0,0E0,0E0,0E0,0E0,0E0,0E0,0E0,0E0,0E0,0E0,0E0,0E0,0E0,0E0],"parents":[2147483647,0,0,1,1,2,2,3,3,4,4,5,5,6,6,7,7,8,8,9,9,10,10,11,11,12,12,13,13,14,14,15,15,16,16,17,17,18,18,19,19,20,20,21,21,22,22,23,23,24,24,25,25,26,26,27,27,29,29,30,30],"right_children":[2,4,6,8,10,12,14,16,18,20,22,24,26,28,30,32,34,36,38,40,42,44,46,48,50,52,54,56,-1,58,60,-1,-1,-1,-1,-1,-1,-1,-1,-1,-1,-1,-1,-1,-1,-1,-1,-1,-1,-1,-1,-1,-1,-1,-1,-1,-1,-1,-1,-1,-1],"split_conditions":[6.84938E3,4.47221E3,1.084617E4,3.425E3,5.20167E3,9.22727E3,9.11E-1,2.86609E3,3.90235E3,1.8E1,1.8E1,8.00011E3,7.91E-1,8.6E-1,1.199986E4,1.5E1,3.07596E3,1.6E1,1.6E1,4.8349E3,1E1,5.90374E3,1.1E1,1.7E1,7E0,9.87476E3,5.469E0,7E0,2.5916513E2,1.159E0,6.001E0,-1.3453302E2,-1.0925398E2,-1.16273094E2,-1.03884315E2,-9.102328E1,-7.886771E1,-6.922096E1,-5.1403236E1,-4.715831E1,-2.8173971E1,4.8386245E0,-3.8991932E1,-1.2101401E1,1.9803988E1,4.4853645E1,6.302493E0,5.6492634E1,9.561078E1,1.1955668E2,9.5907906E1,1.6385205E0,1.2087728E2,1.5611378E2,1.1886139E2,1.4439452E2,6.380144E1,1.4743993E2,1.9381604E2,2.1501155E2,1.0602053E2],"split_indices":[4,4,4,4,4,4,0,4,4,1,1,4,0,0,4,1,4,1,1,4,3,4,3,1,3,4,0,1,0,0,0,0,0,0,0,0,0,0,0,0,0,0,0,0,0,0,0,0,0,0,0,0,0,0,0,0,0,0,0,0,0],"split_type":[0,0,0,0,0,0,0,0,0,0,0,0,0,0,0,0,0,0,0,0,0,0,0,0,0,0,0,0,0,0,0,0,0,0,0,0,0,0,0,0,0,0,0,0,0,0,0,0,0,0,0,0,0,0,0,0,0,0,0,0,0],"sum_hessian":[1.1229E4,7.925E3,3.304E3,5.284E3,2.641E3,2.256E3,1.048E3,2.641E3,2.643E3,1.152E3,1.489E3,9.49E2,1.307E3,4.05E2,6.43E2,1.091E3,1.55E3,1.368E3,1.275E3,8.54E2,2.98E2,1.032E3,4.57E2,5.27E2,4.22E2,4E1,1.267E3,1.8E1,3.87E2,1.64E2,4.79E2,9.79E2,1.12E2,5.72E2,9.78E2,1.07E3,2.98E2,9.36E2,3.39E2,4.38E2,4.16E2,1.82E2,1.16E2,5.42E2,4.9E2,4.1E2,4.7E1,3E2,2.27E2,2.27E2,1.95E2,4E0,3.6E1,1.211E3,5.6E1,6E0,1.2E1,6.4E1,1E2,4.75E2,4E0],"tree_param":{"num_deleted":"0","num_feature":"5","num_nodes":"61","size_leaf_vector":"1"}},{"base_weights":[1.9729494E1,-1.3193727E3,2.829089E3,-1.8464172E3,-2.0709581E2,1.6727069E3,3.6013777E3,-2.2359382E3,-1.4458596E3,-6.739544E2,1.6758191E2,1.9613905E3,-3.4367344E1,3.8889954E3,2.171569E3,-2.5133247E3,-2.0648184E3,-8.8319226E2,-1.5457286E3,1.8839587E2,-8.2805E2,1.3979647E3,-1.6856354E1,1.2526527E3,2.3272808E3,7.144724E2,-2.853429E2,3.340105E3,4.7035107E3,3.0672686E3,1.7017008E3,-1.2135152E2,-1.3990434E2,-9.737232E1,-1.2121118E2,7.4012535E1,-4.55983E1,-7.2483376E1,-1.012735E2,8.455286E1,-4.600774E0,-3.4926662E1,-7.144744E1,7.943366E1,-8.449766E0,7.9286056E0,-4.843397E1,1.3208258E2,5.3180416E1,1.7118178E2,1.0673168E2,1.1134131E1,7.573957E1,-5.038124E1,-5.7579207E0,1.6026726E2,1.902105E2,1.237701E2,2.3736722E2,1.17896904E2,2.4018126E2,1.0199244E2,5.98038E1],"categories":[],"categories_nodes":[],"categories_segments":[],"categories_sizes":[],"default_left":[0,0,0,0,0,0,0,0,0,0,0,0,0,0,0,0,0,0,0,0,0,0,0,0,0,0,0,0,0,0,0,0,0,0,0,0,0,0,0,0,0,0,0,0,0,0,0,0,0,0,0,0,0,0,0,0,0,0,0,0,0,0,0],"id":4,"left_children":[1,3,5,7,9,11,13,15,17,19,21,23,25,27,29,31,33,35,37,39,41,43,45,47,49,51,53,55,57,59,61,-1,-1,-1,-1,-1,-1,-1,-1,-1,-1,-1,-1,-1,-1,-1,-1,-1,-1,-1,-1,-1,-1,-1,-1,-1,-1,-1,-1,-1,-1,-1,-1],"loss_changes":[4.200292E10,4.4320225E9,3.2125686E9,7.9717786E8,4.2552205E8,7.121692E8,8.79829E8,1.1817574E8,1.409152E8,1.440698E8,3.0637862E8,3.1760435E8,3.9671364E7,7.876915E8,1.4797389E8,1.7463296E7,6.33216E7,2.7463872E7,9.609933E7,6.968055E7,7.052422E7,5.286301E7,1.9635142E8,1.0826272E8,1.646167E8,2.0522884E7,1.9305512E7,5.5163904E7,5.866496E7,1.4139802E8,3.876544E7,0E0,0E0,0E0,0E0,0E0,0E0,0E0,0E0,0E0,0E0,0E0,0E0,0E0,0E0,0E0,0E0,0E0,0E0,0E0,0E0,0E0,0E0,0E0,0E0,0E0,0E0,0E0,0E0,0E0,0E0,0E0,0E0],"parents":[2147483647,0,0,1,1,2,2,3,3,4,4,5,5,6,6,7,7,8,8,9,9,10,10,11,11,12,12,13,13,14,14,15,15,16,16,17,17,18,18,19,19,20,20,21,21,22,22,23,23,24,24,25,25,26,26,27,27,28,28,29,29,30,30],"right_children":[2,4,6,8,10,12,14,16,18,20,22,24,26,28,30,32,34,36,38,40,42,44,46,48,50,52,54,56,58,60,62,-1,-1,-1,-1,-1,-1,-1,-1,-1,-1,-1,-1,-1,-1,-1,-1,-1,-1,-1,-1,-1,-1,-1,-1,-1,-1,-1,-1,-1,-1,-1,-1],"split_conditions":[6.45716E3,4.42351E3,1E4,3.425E3,5.10811E3,6E0,6E0,2.82975E3,1E0,1E0,1E0,7.24993E3,4E0,1.199986E4,9.08E-1,5E0,5E0,3.43961E3,6E0,8.99E-1,6E0,5.946E0,6E0,1E0,1E0,8.66621E3,6.84938E3,1.031441E4,8.6E-1,8.94E-1,2.486E0,-1.2135152E2,-1.3990434E2,-9.737232E1,-1.2121118E2,7.4012535E1,-4.55983E1,-7.2483376E1,-1.012735E2,8.455286E1,-4.600774E0,-3.4926662E1,-7.144744E1,7.943366E1,-8.449766E0,7.9286056E0,-4.843397E1,1.3208258E2,5.3180416E1,1.7118178E2,1.0673168E2,1.1134131E1,7.573957E1,-5.038124E1,-5.7579207E0,1.6026726E2,1.902105E2,1.237701E2,2.3736722E2,1.17896904E2,2.4018126E2,1.0199244E2,5.98038E1],"split_indices":[4,4,4,4,4,2,2,4,2,2,2,4,3,4,0,2,2,4,2,0,2,0,2,2,2,4,4,4,0,0,0,0,0,0,0,0,0,0,0,0,0,0,0,0,0,0,0,0,0,0,0,0,0,0,0,0,0,0,0,0,0,0,0],"split_type":[0,0,0,0,0,0,0,0,0,0,0,0,0,0,0,0,0,0,0,0,0,0,0,0,0,0,0,0,0,0,0,0,0,0,0,0,0,0,0,0,0,0,0,0,0,0,0,0,0,0,0,0,0,0,0,0,0,0,0,0,0,0,0],"sum_hessian":[1.1163E4,7.56E3,3.603E3,5.129E3,2.431E3,1.444E3,2.159E3,2.598E3,2.531E3,1.082E3,1.349E3,1.235E3,2.09E2,1.796E3,3.63E2,9.86E2,1.612E3,3.83E2,2.148E3,1.64E2,9.18E2,1.75E2,1.174E3,4.22E2,8.13E2,5.2E1,1.57E2,1.076E3,7.2E2,1.23E2,2.4E2,7.64E2,2.22E2,1.22E3,3.92E2,4E0,3.79E2,1.793E3,3.55E2,2.5E1,1.39E2,7.57E2,1.61E2,1.56E2,1.9E1,9.92E2,1.82E2,4.9E1,3.73E2,1.19E2,6.94E2,3.3E1,1.9E1,2.9E1,1.28E2,8.4E2,2.36E2,1.5E1,7.05E2,8.9E1,3.4E1,1.42E2,9.8E1],"tree_param":{"num_deleted":"0","num_feature":"5","num_nodes":"63","size_leaf_vector":"1"}},{"base_weights":[1.6200953E1,-1.1891974E3,2.8476304E3,-1.7876486E3,-1.5515569E2,1.7619268E3,3.4348723E3,-2.1378535E3,-1.4062406E3,-5.7227246E2,3.4969272E2,2.035083E3,3.6768215E1,2.9318252E3,4.1613423E3,-2.3133381E3,-1.9179054E3,-1.3142677E3,-1.9623406E3,2.7746103E2,-7.183781E2,5.4623285E2,-8.451647E2,1.5737256E3,2.388968E3,1.0135884E3,-2.3824971E2,3.184087E3,1.6639811E3,4.4445903E3,2.775098E3,-1.1745049E2,-8.568478E1,-9.157216E1,-1.22095924E2,-4.521236E1,-6.998647E1,-7.9964005E1,-1.0570092E2,-3.846651E1,6.307005E1,-2.8907927E1,-6.842872E1,8.0469345E1,1.889607E1,-1.2001874E1,-4.7770542E1,1.3670616E2,6.791568E1,1.5491614E2,1.1392251E2,6.8140594E1,1.454498E1,-2.3781954E1,3.3368935E1,1.9863924E2,1.5610303E2,9.875466E1,2.7850128E1,2.3129341E2,2.0990605E2,1.9015071E2,9.2498825E1],"categories":[],"categories_nodes":[],"categories_segments":[],"categories_sizes":[],"default_left":[0,0,0,0,0,0,0,0,0,0,0,0,0,0,0,0,0,0,0,0,0,0,0,0,0,0,0,0,0,0,0,0,0,0,0,0,0,0,0,0,0,0,0,0,0,0,0,0,0,0,0,0,0,0,0,0,0,0,0,0,0,0,0],"id":5,"left_children":[1,3,5,7,9,11,13,15,17,19,21,23,25,27,29,31,33,35,37,39,41,43,45,47,49,51,53,55,57,59,61,-1,-1,-1,-1,-1,-1,-1,-1,-1,-1,-1,-1,-1,-1,-1,-1,-1,-1,-1,-1,-1,-1,-1,-1,-1,-1,-1,-1,-1,-1,-1,-1],"loss_changes":[3.8519095E10,4.8983286E9,2.1425623E9,6.667182E8,6.1151597E8,5.5834214E8,7.866716E8,9.63799E7,1.2032512E8,1.975992E8,3.0903798E8,1.6326323E8,4.4030304E7,4.0888013E8,3.379108E8,2.6948096E7,4.831104E7,7.109427E7,1.5287168E7,2.419857E8,1.2292678E8,2.0141616E8,1.2179272E7,1.0801984E8,3.817549E7,8.689236E6,2.783571E7,4.038144E7,7.363354E7,1.3597696E7,1.3941043E8,0E0,0E0,0E0,0E0,0E0,0E0,0E0,0E0,0E0,0E0,0E0,0E0,0E0,0E0,0E0,0E0,0E0,0E0,0E0,0E0,0E0,0E0,0E0,0E0,0E0,0E0,0E0,0E0,0E0,0E0,0E0,0E0],"parents":[2147483647,0,0,1,1,2,2,3,3,4,4,5,5,6,6,7,7,8,8,9,9,10,10,11,11,12,12,13,13,14,14,15,15,16,16,17,17,18,18,19,19,20,20,21,21,22,22,23,23,24,24,25,25,26,26,27,27,28,28,29,29,30,30],"right_children":[2,4,6,8,10,12,14,16,18,20,22,24,26,28,30,32,34,36,38,40,42,44,46,48,50,52,54,56,58,60,62,-1,-1,-1,-1,-1,-1,-1,-1,-1,-1,-1,-1,-1,-1,-1,-1,-1,-1,-1,-1,-1,-1,-1,-1,-1,-1,-1,-1,-1,-1,-1,-1],"split_conditions":[6.84938E3,4.33019E3,1E4,3.425E3,5.35962E3,6E0,1.199986E4,2.99977E3,6E0,1E0,6E0,8.00011E3,5E0,6E0,6E0,1.6E1,6E0,1E0,8E0,1.1E1,6E0,1E0,5E0,1E0,1E0,7E0,2.1E1,3E0,1.011701E4,5E0,1.6E1,-1.1745049E2,-8.568478E1,-9.157216E1,-1.22095924E2,-4.521236E1,-6.998647E1,-7.9964005E1,-1.0570092E2,-3.846651E1,6.307005E1,-2.8907927E1,-6.842872E1,8.0469345E1,1.889607E1,-1.2001874E1,-4.7770542E1,1.3670616E2,6.791568E1,1.5491614E2,1.1392251E2,6.8140594E1,1.454498E1,-2.3781954E1,3.3368935E1,1.9863924E2,1.5610303E2,9.875466E1,2.7850128E1,2.3129341E2,2.0990605E2,1.9015071E2,9.2498825E1],"split_indices":[4,4,4,4,4,2,4,4,2,2,2,4,1,2,2,1,2,2,1,1,2,2,1,2,2,3,1,3,4,3,1,0,0,0,0,0,0,0,0,0,0,0,0,0,0,0,0,0,0,0,0,0,0,0,0,0,0,0,0,0,0,0,0],"split_type":[0,0,0,0,0,0,0,0,0,0,0,0,0,0,0,0,0,0,0,0,0,0,0,0,0,0,0,0,0,0,0,0,0,0,0,0,0,0,0,0,0,0,0,0,0,0,0,0,0,0,0,0,0,0,0,0,0,0,0,0,0,0,0],"sum_hessian":[1.1284E4,7.915E3,3.369E3,5.013E3,2.902E3,1.184E3,2.185E3,2.611E3,2.402E3,1.589E3,1.313E3,1.022E3,1.62E2,1.294E3,8.91E2,1.447E3,1.164E3,2.064E3,3.38E2,2.33E2,1.356E3,1.128E3,1.85E2,4.46E2,5.76E2,3.5E1,1.27E2,1.078E3,2.16E2,7.38E2,1.53E2,1.363E3,8.4E1,1.003E3,1.61E2,3.58E2,1.706E3,1.03E2,2.35E2,1.13E2,1.2E2,1.117E3,2.39E2,1.53E2,9.75E2,2.9E1,1.56E2,6.8E1,3.78E2,7.4E1,5.02E2,2.3E1,1.2E1,1.01E2,2.6E1,7.4E1,1.004E3,1.68E2,4.8E1,4.15E2,3.23E2,7.1E1,8.2E1],"tree_param":{"num_deleted":"0","num_feature":"5","num_nodes":"63","size_leaf_vector":"1"}},{"base_weights":[2.8625646E0,-5.014632E2,1.5338569E3,3.8082193E2,-8.107278E2,1.9236407E3,1.979396E2,-7.507301E2,7.828061E2,-3.2933008E2,-1.1926462E3,2.1414363E3,5.3968567E2,1.9144805E3,-6.587548E2,7.704637E2,-1.765625E3,-4.8334255E0,3.4832979E3,4.483848E1,-1.0514713E3,-1.4690466E3,-5.4815814E2,1.1360332E3,2.3881355E3,-8.3386554E2,8.189393E2,2.5085396E3,1.313569E3,7.0892847E2,-1.2229512E3,8.8720146E1,-6.6406784E0,-5.1552418E1,-9.175423E1,-6.1240993E1,3.0294895E1,1.1727915E2,2.2074211E2,5.3540127E1,-1.5186751E1,-2.7454346E1,-7.9804085E1,-7.9611916E1,6.8673477E0,-9.160375E1,-1.7446775E1,1.661424E2,4.96563E0,4.581741E1,1.338863E2,-7.3008356E0,-5.7663227E1,-1.0736625E1,5.300849E1,1.385151E2,3.853645E1,1.0877453E2,4.0992508E1,-4.5358604E1,1.2104768E2,-3.386047E1,-7.071163E1],"categories":[],"categories_nodes":[],"categories_segments":[],"categories_sizes":[],"default_left":[0,0,0,0,0,0,0,0,0,0,0,0,0,0,0,0,0,0,0,0,0,0,0,0,0,0,0,0,0,0,0,0,0,0,0,0,0,0,0,0,0,0,0,0,0,0,0,0,0,0,0,0,0,0,0,0,0,0,0,0,0,0,0],"id":6,"left_children":[1,3,5,7,9,11,13,15,17,19,21,23,25,27,29,31,33,35,37,39,41,43,45,47,49,51,53,55,57,59,61,-1,-1,-1,-1,-1,-1,-1,-1,-1,-1,-1,-1,-1,-1,-1,-1,-1,-1,-1,-1,-1,-1,-1,-1,-1,-1,-1,-1,-1,-1,-1,-1],"loss_changes":[8.634615E9,2.2956032E9,1.4425313E9,9.94015E8,1.1448384E9,6.453883E8,9.232968E8,8.859876E8,3.4287634E9,7.449956E8,6.178637E8,4.5688986E8,1.1306865E8,7.131302E7,3.241849E8,2.0880778E8,1.5659904E7,9.3135194E8,3.754235E8,6.501278E8,2.5658464E8,4.811013E8,2.6640064E8,8.3170157E8,6.313298E8,1.0816516E7,6.106981E7,4.517376E7,4.332437E7,3.425132E8,3.0046208E7,0E0,0E0,0E0,0E0,0E0,0E0,0E0,0E0,0E0,0E0,0E0,0E0,0E0,0E0,0E0,0E0,0E0,0E0,0E0,0E0,0E0,0E0,0E0,0E0,0E0,0E0,0E0,0E0,0E0,0E0,0E0,0E0],"parents":[2147483647,0,0,1,1,2,2,3,3,4,4,5,5,6,6,7,7,8,8,9,9,10,10,11,11,12,12,13,13,14,14,15,15,16,16,17,17,18,18,19,19,20,20,21,21,22,22,23,23,24,24,25,25,26,26,27,27,28,28,29,29,30,30],"right_children":[2,4,6,8,10,12,14,16,18,20,22,24,26,28,30,32,34,36,38,40,42,44,46,48,50,52,54,56,58,60,62,-1,-1,-1,-1,-1,-1,-1,-1,-1,-1,-1,-1,-1,-1,-1,-1,-1,-1,-1,-1,-1,-1,-1,-1,-1,-1,-1,-1,-1,-1,-1,-1],"split_conditions":[1.8E1,5E0,1E1,8.6E-1,8E0,6E0,2E1,7E0,4E0,3.387E0,1.5E1,4E0,1.9E1,1.9E1,2.591E0,7.96E-1,8E0,6E0,8.94E-1,2E0,1E1,1.2E1,8.65E-1,2E1,1.9E1,5E0,4E0,6E0,3.198E0,2.008E0,2.1E1,8.8720146E1,-6.6406784E0,-5.1552418E1,-9.175423E1,-6.1240993E1,3.0294895E1,1.1727915E2,2.2074211E2,5.3540127E1,-1.5186751E1,-2.7454346E1,-7.9804085E1,-7.9611916E1,6.8673477E0,-9.160375E1,-1.7446775E1,1.661424E2,4.96563E0,4.581741E1,1.338863E2,-7.3008356E0,-5.7663227E1,-1.0736625E1,5.300849E1,1.385151E2,3.853645E1,1.0877453E2,4.0992508E1,-4.5358604E1,1.2104768E2,-3.386047E1,-7.071163E1],"split_indices":[1,3,3,0,1,2,1,1,3,0,1,3,1,1,0,0,1,1,0,1,3,3,0,1,1,3,3,2,0,0,1,0,0,0,0,0,0,0,0,0,0,0,0,0,0,0,0,0,0,0,0,0,0,0,0,0,0,0,0,0,0,0,0],"split_type":[0,0,0,0,0,0,0,0,0,0,0,0,0,0,0,0,0,0,0,0,0,0,0,0,0,0,0,0,0,0,0,0,0,0,0,0,0,0,0,0,0,0,0,0,0,0,0,0,0,0,0,0,0,0,0,0,0,0,0,0,0,0,0],"sum_hessian":[1.1181E4,8.411E3,2.77E3,2.183E3,6.228E3,2.144E3,6.26E2,5.72E2,1.611E3,2.756E3,3.472E3,1.852E3,2.92E2,2.08E2,4.18E2,2.29E2,3.43E2,1.248E3,3.63E2,1.816E3,9.4E2,2.429E3,1.043E3,3.66E2,1.486E3,4.9E1,2.43E2,1.03E2,1.05E2,1.22E2,2.96E2,1.08E2,1.21E2,3.1E1,3.12E2,4.16E2,8.32E2,1.65E2,1.98E2,4.6E2,1.356E3,4.9E2,4.5E2,2.256E3,1.73E2,1.39E2,9.04E2,1.17E2,2.49E2,2.45E2,1.241E3,1.6E1,3.3E1,4.6E1,1.97E2,8.9E1,1.4E1,3.7E1,6.8E1,6.3E1,5.9E1,7.8E1,2.18E2],"tree_param":{"num_deleted":"0","num_feature":"5","num_nodes":"63","size_leaf_vector":"1"}},{"base_weights":[-7.202942E0,-1.1201592E3,2.610565E3,-1.6194727E3,-1.0287854E2,1.5897212E3,3.1836055E3,-1.9329734E3,-1.2231611E3,-4.0268704E2,4.27073E2,1.8139158E3,2.1690134E2,2.735562E3,3.8465518E3,-2.108946E3,-1.6980686E3,-1.1337595E3,-1.7396421E3,-1.9652159E2,-9.286938E2,6.156992E2,-7.0365607E2,1.4466469E3,2.3295078E3,1.0696636E3,-1.0547248E2,2.9402197E3,1.5950952E3,4.111819E3,2.5852312E3,-1.0249184E2,-1.25526634E2,-5.5550274E1,-9.029553E1,-6.577222E1,-4.6568707E1,-9.827364E1,-7.720188E1,1.80318E1,-1.7095762E1,-3.2658886E1,-5.9610218E1,6.9556816E1,2.4759039E1,-1.6257612E1,-4.577672E1,1.24392395E2,6.2964607E1,1.6340013E2,1.097476E2,5.859493E1,-4.1020737E1,2.7329756E1,-1.9828316E1,1.4048459E2,1.6660178E2,2.8278875E1,9.7421364E1,2.1285757E2,1.9540141E2,1.8261797E2,8.9883E1],"categories":[],"categories_nodes":[],"categories_segments":[],"categories_sizes":[],"default_left":[0,0,0,0,0,0,0,0,0,0,0,0,0,0,0,0,0,0,0,0,0,0,0,0,0,0,0,0,0,0,0,0,0,0,0,0,0,0,0,0,0,0,0,0,0,0,0,0,0,0,0,0,0,0,0,0,0,0,0,0,0,0,0],"id":7,"left_children":[1,3,5,7,9,11,13,15,17,19,21,23,25,27,29,31,33,35,37,39,41,43,45,47,49,51,53,55,57,59,61,-1,-1,-1,-1,-1,-1,-1,-1,-1,-1,-1,-1,-1,-1,-1,-1,-1,-1,-1,-1,-1,-1,-1,-1,-1,-1,-1,-1,-1,-1,-1,-1],"loss_changes":[3.2814324E10,4.0140974E9,1.960489E9,6.562529E8,4.1374694E8,3.7201894E8,6.283858E8,1.1869286E8,1.0626022E8,1.8016058E8,2.0113454E8,1.9356518E8,4.712213E7,2.9570355E8,2.7878707E8,3.4898944E7,7.852442E7,7.235226E7,1.216096E7,9.700787E7,3.3198752E7,7.472886E7,1.0528872E7,1.1586227E8,4.7253504E7,1.0043348E7,2.3943368E7,4.638413E7,7.092285E7,4.48E6,1.2202163E8,0E0,0E0,0E0,0E0,0E0,0E0,0E0,0E0,0E0,0E0,0E0,0E0,0E0,0E0,0E0,0E0,0E0,0E0,0E0,0E0,0E0,0E0,0E0,0E0,0E0,0E0,0E0,0E0,0E0,0E0,0E0,0E0],"parents":[2147483647,0,0,1,1,2,2,3,3,4,4,5,5,6,6,7,7,8,8,9,9,10,10,11,11,12,12,13,13,14,14,15,15,16,16,17,17,18,18,19,19,20,20,21,21,22,22,23,23,24,24,25,25,26,26,27,27,28,28,29,29,30,30],"right_children":[2,4,6,8,10,12,14,16,18,20,22,24,26,28,30,32,34,36,38,40,42,44,46,48,50,52,54,56,58,60,62,-1,-1,-1,-1,-1,-1,-1,-1,-1,-1,-1,-1,-1,-1,-1,-1,-1,-1,-1,-1,-1,-1,-1,-1,-1,-1,-1,-1,-1,-1,-1,-1],"split_conditions":[6.78732E3,4.47221E3,1E4,3.51347E3,5.67239E3,6E0,1.199986E4,3.07596E3,6E0,5E0,6E0,8.34316E3,6E0,6E0,6E0,6E0,1E0,3.97122E3,3.9501E3,1E0,6E0,1E0,7E0,1E0,1E0,9.22727E3,4E0,1.011701E4,6E0,5E0,1.6E1,-1.0249184E2,-1.25526634E2,-5.5550274E1,-9.029553E1,-6.577222E1,-4.6568707E1,-9.827364E1,-7.720188E1,1.80318E1,-1.7095762E1,-3.2658886E1,-5.9610218E1,6.9556816E1,2.4759039E1,-1.6257612E1,-4.577672E1,1.24392395E2,6.2964607E1,1.6340013E2,1.097476E2,5.859493E1,-4.1020737E1,2.7329756E1,-1.9828316E1,1.4048459E2,1.6660178E2,2.8278875E1,9.7421364E1,2.1285757E2,1.9540141E2,1.8261797E2,8.9883E1],"split_indices":[4,4,4,4,4,2,4,4,2,2,2,4,1,2,2,2,2,4,4,2,2,2,1,2,2,4,3,4,3,3,1,0,0,0,0,0,0,0,0,0,0,0,0,0,0,0,0,0,0,0,0,0,0,0,0,0,0,0,0,0,0,0,0],"split_type":[0,0,0,0,0,0,0,0,0,0,0,0,0,0,0,0,0,0,0,0,0,0,0,0,0,0,0,0,0,0,0,0,0,0,0,0,0,0,0,0,0,0,0,0,0,0,0,0,0,0,0,0,0,0,0,0,0,0,0,0,0,0,0],"sum_hessian":[1.1261E4,7.902E3,3.359E3,5.3E3,2.602E3,1.209E3,2.15E3,2.957E3,2.343E3,1.662E3,9.4E2,1.039E3,1.7E2,1.286E3,8.64E2,1.686E3,1.271E3,2E3,3.43E2,1.195E3,4.67E2,8.06E2,1.34E2,6.09E2,4.3E2,4.6E1,1.24E2,1.089E3,1.97E2,7.12E2,1.52E2,1.475E3,2.11E2,1.99E2,1.072E3,1.051E3,9.49E2,1.55E2,1.88E2,2.47E2,9.48E2,2.3E2,2.37E2,1.07E2,6.99E2,4.9E1,8.5E1,9.1E1,5.18E2,5.1E1,3.79E2,4.4E1,2E0,3.8E1,8.6E1,8.23E2,2.66E2,5.1E1,1.46E2,4.04E2,3.08E2,6.3E1,8.9E1],"tree_param":{"num_deleted":"0","num_feature":"5","num_nodes":"63","size_leaf_vector":"1"}},{"base_weights":[1.95009E1,-1.1021725E3,2.3862324E3,-1.6076276E3,-2.9193158E2,1.3598777E3,2.9858047E3,-1.9376475E3,-1.3374307E3,-7.502545E2,3.088033E0,8.47499E2,1.6443411E3,2.5557207E3,3.6660679E3,-2.136195E3,-1.8099259E3,-1.4841747E3,-1.1569148E3,-8.5698816E2,-4.686425E2,-1.758771E2,4.3560974E2,5.783851E2,1.1086627E3,1.443021E3,1.9833667E3,2.9006003E3,2.5238213E3,4.0686301E3,3.3546567E3,-1.0848187E2,-7.5527306E1,-9.397277E1,-8.439227E1,-7.752694E1,-6.4855034E1,-6.217577E1,-4.775017E1,-4.7594395E1,-3.234469E1,-1.57666645E1,-3.664468E1,-1.6645874E1,1.3571746E1,4.453712E0,3.3484E1,1.3994098E1,5.6622932E1,5.770703E1,-4.362465E1,6.0643734E1,9.29805E1,5.4207058E1,1.0546525E2,1.5120631E2,4.5837418E1,6.1501106E1,1.2752423E2,9.010769E1,2.0784178E2,1.8573784E2,1.5917966E2],"categories":[],"categories_nodes":[],"categories_segments":[],"categories_sizes":[],"default_left":[0,0,0,0,0,0,0,0,0,0,0,0,0,0,0,0,0,0,0,0,0,0,0,0,0,0,0,0,0,0,0,0,0,0,0,0,0,0,0,0,0,0,0,0,0,0,0,0,0,0,0,0,0,0,0,0,0,0,0,0,0,0,0],"id":8,"left_children":[1,3,5,7,9,11,13,15,17,19,21,23,25,27,29,31,33,35,37,39,41,43,45,47,49,51,53,55,57,59,61,-1,-1,-1,-1,-1,-1,-1,-1,-1,-1,-1,-1,-1,-1,-1,-1,-1,-1,-1,-1,-1,-1,-1,-1,-1,-1,-1,-1,-1,-1,-1,-1],"loss_changes":[2.9870658E10,3.1259628E9,2.2223606E9,4.16598E8,3.9672096E8,1.9333274E8,6.585692E8,4.9741824E7,6.683853E7,3.4134464E7,1.3832429E8,3.3024224E7,5.569869E7,8.103936E6,9.692058E7,1.3921536E7,7.80288E6,1.5667712E7,1.9183232E7,1.5972544E7,1.2651752E7,8.888136E7,4.236279E7,3.904651E7,2.2810912E7,4.970957E7,3.3612416E7,2.4674048E7,4.139827E7,6.847642E7,1.9158528E7,0E0,0E0,0E0,0E0,0E0,0E0,0E0,0E0,0E0,0E0,0E0,0E0,0E0,0E0,0E0,0E0,0E0,0E0,0E0,0E0,0E0,0E0,0E0,0E0,0E0,0E0,0E0,0E0,0E0,0E0,0E0,0E0],"parents":[2147483647,0,0,1,1,2,2,3,3,4,4,5,5,6,6,7,7,8,8,9,9,10,10,11,11,12,12,13,13,14,14,15,15,16,16,17,17,18,18,19,19,20,20,21,21,22,22,23,23,24,24,25,25,26,26,27,27,28,28,29,29,30,30],"right_children":[2,4,6,8,10,12,14,16,18,20,22,24,26,28,30,32,34,36,38,40,42,44,46,48,50,52,54,56,58,60,62,-1,-1,-1,-1,-1,-1,-1,-1,-1,-1,-1,-1,-1,-1,-1,-1,-1,-1,-1,-1,-1,-1,-1,-1,-1,-1,-1,-1,-1,-1,-1,-1],"split_conditions":[6.45716E3,4.19258E3,9.52475E3,3.2699E3,4.86234E3,7.24993E3,1.199986E4,2.75688E3,3.72119E3,1.7E1,1.8E1,1.159E0,8.5179E3,3E0,9.11E-1,1.6E1,3.07596E3,1.5E1,1.5E1,4.62953E3,1E1,5.90374E3,5.40318E3,1.9E1,6.001E0,1.9E1,8.6E-1,2.578E0,4E0,8.6E-1,1.1E1,-1.0848187E2,-7.5527306E1,-9.397277E1,-8.439227E1,-7.752694E1,-6.4855034E1,-6.217577E1,-4.775017E1,-4.7594395E1,-3.234469E1,-1.57666645E1,-3.664468E1,-1.6645874E1,1.3571746E1,4.453712E0,3.3484E1,1.3994098E1,5.6622932E1,5.770703E1,-4.362465E1,6.0643734E1,9.29805E1,5.4207058E1,1.0546525E2,1.5120631E2,4.5837418E1,6.1501106E1,1.2752423E2,9.010769E1,2.0784178E2,1.8573784E2,1.5917966E2],"split_indices":[4,4,4,4,4,4,4,4,4,1,1,0,4,3,0,1,4,1,1,4,3,4,4,1,0,1,0,0,3,0,1,0,0,0,0,0,0,0,0,0,0,0,0,0,0,0,0,0,0,0,0,0,0,0,0,0,0,0,0,0,0,0,0],"split_type":[0,0,0,0,0,0,0,0,0,0,0,0,0,0,0,0,0,0,0,0,0,0,0,0,0,0,0,0,0,0,0,0,0,0,0,0,0,0,0,0,0,0,0,0,0,0,0,0,0,0,0,0,0,0,0,0,0,0,0,0,0,0,0],"sum_hessian":[1.125E4,7.633E3,3.617E3,4.7E3,2.933E3,1.335E3,2.282E3,2.113E3,2.587E3,1.148E3,1.785E3,4.78E2,8.57E2,1.401E3,8.81E2,8.21E2,1.292E3,1.423E3,1.164E3,8.31E2,3.17E2,1.263E3,5.22E2,2.37E2,2.41E2,5.41E2,3.16E2,1.11E2,1.29E3,3.79E2,5.02E2,7.77E2,4.4E1,8.14E2,4.78E2,1.045E3,3.78E2,8.11E2,3.53E2,5.7E2,2.61E2,2.02E2,1.15E2,9.35E2,3.28E2,2.11E2,3.11E2,1.55E2,8.2E1,2.36E2,5E0,3.51E2,1.9E2,4E1,2.76E2,1.04E2,7E0,2.7E1,1.263E3,1.5E1,3.64E2,1.55E2,3.47E2],"tree_param":{"num_deleted":"0","num_feature":"5","num_nodes":"63","size_leaf_vector":"1"}},{"base_weights":[-1.4818613E1,-9.9360333E2,2.3561196E3,-1.4589279E3,-4.291606E1,1.4224054E3,2.8525007E3,-1.7390398E3,-1.0906162E3,-3.4696326E2,4.2580347E2,1.193291E3,1.7921588E3,2.422965E3,3.494719E3,-1.9332278E3,-1.5564266E3,-1.2639373E3,-9.668329E2,-5.910759E2,-1.7165239E2,2.4528285E2,7.277589E2,9.7061804E2,1.5318188E3,7.7849646E2,1.9345315E3,8.3622215E1,2.4408403E3,1.2504783E3,3.5333982E3,-1.10352455E2,-9.3558464E1,-8.025202E1,-6.775343E1,-6.715536E1,-5.509419E1,-5.154905E1,-3.7854015E1,-3.0891235E1,1.4788844E1,-1.5929183E1,1.0256584E1,2.4220498E-1,2.0855175E1,6.718682E1,3.260036E1,9.714549E1,4.3818478E1,2.0596596E1,8.253218E1,7.397309E1,-6.0920177E0,1.0520457E2,7.927987E1,1.2580593E2,1.1408095E2,1.2627526E2,2.2066458E1,1.9553096E2,1.6233368E2],"categories":[],"categories_nodes":[],"categories_segments":[],"categories_sizes":[],"default_left":[0,0,0,0,0,0,0,0,0,0,0,0,0,0,0,0,0,0,0,0,0,0,0,0,0,0,0,0,0,0,0,0,0,0,0,0,0,0,0,0,0,0,0,0,0,0,0,0,0,0,0,0,0,0,0,0,0,0,0,0,0],"id":9,"left_children":[1,3,5,7,9,11,13,15,17,19,21,23,25,27,29,31,33,35,37,39,41,43,45,47,49,51,53,-1,55,57,59,-1,-1,-1,-1,-1,-1,-1,-1,-1,-1,-1,-1,-1,-1,-1,-1,-1,-1,-1,-1,-1,-1,-1,-1,-1,-1,-1,-1,-1,-1],"loss_changes":[2.5970282E10,3.5040143E9,1.5115162E9,5.4675354E8,3.712512E8,9.418342E7,5.8020864E8,1.0404966E8,4.8122624E7,6.75156E7,5.569341E7,5.1656704E7,6.098355E7,1.3116928E7,6.962688E7,2.0663296E7,1.3105152E7,1.077248E7,1.7330176E7,1.5839424E7,5.105317E7,2.6561816E7,1.6995168E7,3.751795E7,3.63136E7,3.489103E7,1.9087488E7,0E0,9.242112E6,1.5392412E7,7.793971E7,0E0,0E0,0E0,0E0,0E0,0E0,0E0,0E0,0E0,0E0,0E0,0E0,0E0,0E0,0E0,0E0,0E0,0E0,0E0,0E0,0E0,0E0,0E0,0E0,0E0,0E0,0E0,0E0,0E0,0E0],"parents":[2147483647,0,0,1,1,2,2,3,3,4,4,5,5,6,6,7,7,8,8,9,9,10,10,11,11,12,12,13,13,14,14,15,15,16,16,17,17,18,18,19,19,20,20,21,21,22,22,23,23,24,24,25,25,26,26,28,28,29,29,30,30],"right_children":[2,4,6,8,10,12,14,16,18,20,22,24,26,28,30,32,34,36,38,40,42,44,46,48,50,52,54,-1,56,58,60,-1,-1,-1,-1,-1,-1,-1,-1,-1,-1,-1,-1,-1,-1,-1,-1,-1,-1,-1,-1,-1,-1,-1,-1,-1,-1,-1,-1,-1,-1],"split_conditions":[6.93294E3,4.52002E3,1E4,3.53722E3,5.67239E3,8.5179E3,1.199986E4,2.99977E3,3.90235E3,4.95219E3,1.7E1,1.8E1,8.62E-1,7.91E-1,8.6E-1,2.14004E3,1.5E1,1.4E1,1.7E1,2.3E1,1.8E1,6.06141E3,3E0,2E0,8.54E-1,8.51E-1,9E0,8.3622215E1,2.368E0,7E0,9.11E-1,-1.10352455E2,-9.3558464E1,-8.025202E1,-6.775343E1,-6.715536E1,-5.509419E1,-5.154905E1,-3.7854015E1,-3.0891235E1,1.4788844E1,-1.5929183E1,1.0256584E1,2.4220498E-1,2.0855175E1,6.718682E1,3.260036E1,9.714549E1,4.3818478E1,2.0596596E1,8.253218E1,7.397309E1,-6.0920177E0,1.0520457E2,7.927987E1,1.2580593E2,1.1408095E2,1.2627526E2,2.2066458E1,1.9553096E2,1.6233368E2],"split_indices":[4,4,4,4,4,4,4,4,4,4,1,1,0,0,0,4,1,1,1,1,1,4,3,3,0,0,3,0,0,1,0,0,0,0,0,0,0,0,0,0,0,0,0,0,0,0,0,0,0,0,0,0,0,0,0,0,0,0,0,0,0],"split_type":[0,0,0,0,0,0,0,0,0,0,0,0,0,0,0,0,0,0,0,0,0,0,0,0,0,0,0,0,0,0,0,0,0,0,0,0,0,0,0,0,0,0,0,0,0,0,0,0,0,0,0,0,0,0,0,0,0,0,0,0,0],"sum_hessian":[1.1189E4,7.92E3,3.269E3,5.317E3,2.603E3,1.136E3,2.133E3,3.018E3,2.299E3,1.579E3,1.024E3,7.04E2,4.32E2,1.281E3,8.52E2,1.458E3,1.56E3,9.54E2,1.345E3,6.59E2,9.2E2,6.42E2,3.82E2,4.27E2,2.77E2,5.4E1,3.78E2,3.2E1,1.249E3,1.5E1,8.37E2,2.63E2,1.195E3,1.251E3,3.09E2,6.36E2,3.18E2,1.027E3,3.18E2,6.4E2,1.9E1,6.62E2,2.58E2,2.68E2,3.74E2,4E1,3.42E2,3.6E1,3.91E2,2.7E1,2.5E2,3E1,2.4E1,2.51E2,1.27E2,8.38E2,4.11E2,5E0,1E1,3.56E2,4.81E2],"tree_param":{"num_deleted":"0","num_feature":"5","num_nodes":"61","size_leaf_vector":"1"}},{"base_weights":[4.1845155E0,-1.0020598E3,2.136938E3,-1.466372E3,-2.455979E2,1.2532184E3,2.7238584E3,-1.7365714E3,-1.2098806E3,-5.4994257E2,1.829719E2,1.477636E3,-1.6002507E2,2.9511072E3,1.6111532E3,-1.9375763E3,-1.6357223E3,-1.1210988E3,-1.6946901E3,8.2826385E1,-6.6096594E2,3.483775E2,-8.351648E2,1.1790881E3,2.0298462E3,6.2017523E2,-4.018091E2,2.4679941E3,3.456372E3,2.341051E3,1.0900623E3,-8.984555E1,-1.0650714E2,-7.740288E1,-9.44878E1,-3.8583145E1,-5.9840584E1,-9.42992E1,-7.088659E1,-4.354152E1,3.7173813E1,-2.764018E1,-5.9119152E1,5.955075E1,9.856589E0,-8.705107E0,-4.616606E1,1.10013245E2,4.9659405E1,1.4681387E2,9.490406E1,5.4941463E1,-4.0474524E0,-2.9813831E1,1.4246268E1,1.5183005E2,1.2206411E2,1.5040678E2,1.7724156E2,8.8066216E1,1.4414229E2,-2.0301985E1,6.484646E1],"categories":[],"categories_nodes":[],"categories_segments":[],"categories_sizes":[],"default_left":[0,0,0,0,0,0,0,0,0,0,0,0,0,0,0,0,0,0,0,0,0,0,0,0,0,0,0,0,0,0,0,0,0,0,0,0,0,0,0,0,0,0,0,0,0,0,0,0,0,0,0,0,0,0,0,0,0,0,0,0,0,0,0],"id":10,"left_children":[1,3,5,7,9,11,13,15,17,19,21,23,25,27,29,31,33,35,37,39,41,43,45,47,49,51,53,55,57,59,61,-1,-1,-1,-1,-1,-1,-1,-1,-1,-1,-1,-1,-1,-1,-1,-1,-1,-1,-1,-1,-1,-1,-1,-1,-1,-1,-1,-1,-1,-1,-1,-1],"loss_changes":[2.3973755E10,2.6655089E9,1.853954E9,3.238359E8,3.767909E8,4.5408794E8,5.391493E8,4.321075E7,1.0209024E8,1.1871062E8,2.0237758E8,2.0120986E8,3.7411268E7,4.2718822E8,1.3703405E8,1.6731648E7,3.1147264E7,5.318067E7,1.7034944E7,1.6004584E8,8.038989E7,1.3141621E8,9.629768E6,1.5044352E8,4.602304E7,1.5861958E7,2.033557E7,6.498816E6,2.38336E7,4.266445E7,6.737728E7,0E0,0E0,0E0,0E0,0E0,0E0,0E0,0E0,0E0,0E0,0E0,0E0,0E0,0E0,0E0,0E0,0E0,0E0,0E0,0E0,0E0,0E0,0E0,0E0,0E0,0E0,0E0,0E0,0E0,0E0,0E0,0E0],"parents":[2147483647,0,0,1,1,2,2,3,3,4,4,5,5,6,6,7,7,8,8,9,9,10,10,11,11,12,12,13,13,14,14,15,15,16,16,17,17,18,18,19,19,20,20,21,21,22,22,23,23,24,24,25,25,26,26,27,27,28,28,29,29,30,30],"right_children":[2,4,6,8,10,12,14,16,18,20,22,24,26,28,30,32,34,36,38,40,42,44,46,48,50,52,54,56,58,60,62,-1,-1,-1,-1,-1,-1,-1,-1,-1,-1,-1,-1,-1,-1,-1,-1,-1,-1,-1,-1,-1,-1,-1,-1,-1,-1,-1,-1,-1,-1,-1,-1],"split_conditions":[6.45716E3,4.19258E3,1E4,3.31707E3,5.2429E3,6E0,6E0,2.70761E3,6E0,1E0,6E0,8.34316E3,5E0,1.084617E4,1.5E1,3E0,5E0,1E0,3.80832E3,1E1,6E0,1E0,3E0,1E0,1E0,7E0,2.1E1,3E0,1.199986E4,1.132174E4,4E0,-8.984555E1,-1.0650714E2,-7.740288E1,-9.44878E1,-3.8583145E1,-5.9840584E1,-9.42992E1,-7.088659E1,-4.354152E1,3.7173813E1,-2.764018E1,-5.9119152E1,5.955075E1,9.856589E0,-8.705107E0,-4.616606E1,1.10013245E2,4.9659405E1,1.4681387E2,9.490406E1,5.4941463E1,-4.0474524E0,-2.9813831E1,1.4246268E1,1.5183005E2,1.2206411E2,1.5040678E2,1.7724156E2,8.8066216E1,1.4414229E2,-2.0301985E1,6.484646E1],"split_indices":[4,4,4,4,4,2,2,4,2,2,2,4,1,4,1,2,2,2,4,1,2,2,1,2,2,3,1,3,4,4,3,0,0,0,0,0,0,0,0,0,0,0,0,0,0,0,0,0,0,0,0,0,0,0,0,0,0,0,0,0,0,0,0],"split_type":[0,0,0,0,0,0,0,0,0,0,0,0,0,0,0,0,0,0,0,0,0,0,0,0,0,0,0,0,0,0,0,0,0,0,0,0,0,0,0,0,0,0,0,0,0,0,0,0,0,0,0,0,0,0,0,0,0,0,0,0,0,0,0],"sum_hessian":[1.1169E4,7.589E3,3.58E3,4.702E3,2.887E3,1.43E3,2.15E3,2.287E3,2.415E3,1.688E3,1.199E3,1.234E3,1.96E2,1.784E3,3.66E2,7.58E2,1.529E3,2.044E3,3.71E2,2.52E2,1.436E3,1.032E3,1.67E2,8.03E2,4.31E2,4.6E1,1.5E2,9.15E2,8.69E2,1.51E2,2.15E2,4.44E2,3.14E2,1.142E3,3.87E2,3.66E2,1.678E3,2.16E2,1.55E2,1.03E2,1.49E2,1.191E3,2.45E2,1.56E2,8.76E2,2E1,1.47E2,1.22E2,6.81E2,5.2E1,3.79E2,2.7E1,1.9E1,1.17E2,3.3E1,3.6E1,8.79E2,1.49E2,7.2E2,7.5E1,7.6E1,2.6E1,1.89E2],"tree_param":{"num_deleted":"0","num_feature":"5","num_nodes":"63","size_leaf_vector":"1"}},{"base_weights":[-6.9243035E0,-4.0232065E2,1.1794089E3,2.6596487E2,-6.3274744E2,1.4733021E3,1.4411882E2,-6.7428644E2,5.870464E2,-2.5199342E2,-9.41732E2,1.6551394E3,3.191542E2,1.5143428E3,-5.802566E2,4.77986E2,-1.4105499E3,-2.7518967E1,2.7757478E3,6.7035065E1,-8.739338E2,-8.021673E2,-1.7752203E3,8.460286E2,1.8579319E3,-1.1249053E3,5.95137E2,1.8191475E3,7.056911E0,6.002681E2,-1.02248706E3,6.866301E1,-1.1073328E1,-6.167988E1,-8.096938E1,-4.9345512E1,2.2581757E1,9.9410484E1,1.7564317E2,4.455858E1,-1.0090238E1,-2.442975E1,-6.3658398E1,-4.914811E1,-5.353048E0,-9.658344E1,-4.1017014E1,1.3932542E2,-3.9212415E0,3.5206776E1,1.04964455E2,-1.56130705E1,-6.5221596E1,-7.91746E0,3.9215015E1,1.23848465E2,6.636324E1,4.3672817E1,-1.7309101E1,-4.044472E1,9.27976E1,-3.797168E1,-6.324844E1],"categories":[],"categories_nodes":[],"categories_segments":[],"categories_sizes":[],"default_left":[0,0,0,0,0,0,0,0,0,0,0,0,0,0,0,0,0,0,0,0,0,0,0,0,0,0,0,0,0,0,0,0,0,0,0,0,0,0,0,0,0,0,0,0,0,0,0,0,0,0,0,0,0,0,0,0,0,0,0,0,0,0,0],"id":11,"left_children":[1,3,5,7,9,11,13,15,17,19,21,23,25,27,29,31,33,35,37,39,41,43,45,47,49,51,53,55,57,59,61,-1,-1,-1,-1,-1,-1,-1,-1,-1,-1,-1,-1,-1,-1,-1,-1,-1,-1,-1,-1,-1,-1,-1,-1,-1,-1,-1,-1,-1,-1,-1,-1],"loss_changes":[5.235316E9,1.289226E9,8.486861E8,6.4856934E8,7.321157E8,4.5551258E8,6.142786E8,4.64736E8,2.1535816E9,5.536411E8,3.9827046E8,3.0640947E8,1.1903454E8,9.83047E7,2.1204965E8,1.3431133E8,1.0345088E7,5.7552576E8,1.9677338E8,4.0895933E8,1.4491098E8,3.6999795E8,7.191501E7,6.7830637E8,4.1623757E8,6.595456E6,3.5757184E7,5.430803E7,1.1626077E7,1.9791162E8,1.7856128E7,0E0,0E0,0E0,0E0,0E0,0E0,0E0,0E0,0E0,0E0,0E0,0E0,0E0,0E0,0E0,0E0,0E0,0E0,0E0,0E0,0E0,0E0,0E0,0E0,0E0,0E0,0E0,0E0,0E0,0E0,0E0,0E0],"parents":[2147483647,0,0,1,1,2,2,3,3,4,4,5,5,6,6,7,7,8,8,9,9,10,10,11,11,12,12,13,13,14,14,15,15,16,16,17,17,18,18,19,19,20,20,21,21,22,22,23,23,24,24,25,25,26,26,27,27,28,28,29,29,30,30],"right_children":[2,4,6,8,10,12,14,16,18,20,22,24,26,28,30,32,34,36,38,40,42,44,46,48,50,52,54,56,58,60,62,-1,-1,-1,-1,-1,-1,-1,-1,-1,-1,-1,-1,-1,-1,-1,-1,-1,-1,-1,-1,-1,-1,-1,-1,-1,-1,-1,-1,-1,-1,-1,-1],"split_conditions":[1.8E1,5E0,1E1,8.6E-1,8E0,6E0,2E1,7E0,4E0,3.387E0,6E0,4E0,1.9E1,6E0,2.591E0,7.95E-1,4E0,6E0,8.94E-1,2E0,1E1,1.6E1,1.1E1,2E1,1.9E1,4E0,4E0,3.198E0,2.486E0,2.008E0,2.2E1,6.866301E1,-1.1073328E1,-6.167988E1,-8.096938E1,-4.9345512E1,2.2581757E1,9.9410484E1,1.7564317E2,4.455858E1,-1.0090238E1,-2.442975E1,-6.3658398E1,-4.914811E1,-5.353048E0,-9.658344E1,-4.1017014E1,1.3932542E2,-3.9212415E0,3.5206776E1,1.04964455E2,-1.56130705E1,-6.5221596E1,-7.91746E0,3.9215015E1,1.23848465E2,6.636324E1,4.3672817E1,-1.7309101E1,-4.044472E1,9.27976E1,-3.797168E1,-6.324844E1],"split_indices":[1,3,3,0,1,2,1,1,3,0,2,3,1,2,0,0,2,1,0,1,3,1,3,1,1,3,3,0,0,0,1,0,0,0,0,0,0,0,0,0,0,0,0,0,0,0,0,0,0,0,0,0,0,0,0,0,0,0,0,0,0,0,0],"split_type":[0,0,0,0,0,0,0,0,0,0,0,0,0,0,0,0,0,0,0,0,0,0,0,0,0,0,0,0,0,0,0,0,0,0,0,0,0,0,0,0,0,0,0,0,0,0,0,0,0,0,0,0,0,0,0,0,0,0,0,0,0,0,0],"sum_hessian":[1.1159E4,8.37E3,2.789E3,2.146E3,6.224E3,2.172E3,6.17E2,5.46E2,1.6E3,2.789E3,3.435E3,1.876E3,2.96E2,2.13E2,4.04E2,2.13E2,3.33E2,1.25E3,3.5E2,1.844E3,9.45E2,2.944E3,4.91E2,3.77E2,1.499E3,4.7E1,2.49E2,1.77E2,3.6E1,1.1E2,2.94E2,9.3E1,1.2E2,1.84E2,1.49E2,4.16E2,8.34E2,1.71E2,1.79E2,4.53E2,1.391E3,4.82E2,4.63E2,2.336E3,6.08E2,4.21E2,7E1,1.21E2,2.56E2,2.6E2,1.239E3,9E0,3.8E1,5E1,1.99E2,7.4E1,1.03E2,1E1,2.6E1,5.2E1,5.8E1,1.43E2,1.51E2],"tree_param":{"num_deleted":"0","num_feature":"5","num_nodes":"63","size_leaf_vector":"1"}},{"base_weights":[2.2398117E1,-9.1657056E2,1.9882041E3,-1.3450427E3,-2.153462E2,1.1663499E3,2.544932E3,-1.60651E3,-1.1046854E3,-5.6077936E2,1.0376487E2,1.3841709E3,-1.5345255E2,2.7722368E3,1.4274343E3,-1.7900856E3,-1.4988358E3,-6.394012E2,-1.1866328E3,1.1005394E2,-6.7932214E2,2.4811642E2,-7.7509015E2,8.368991E2,1.6623756E3,4.5437564E2,-3.788954E2,2.2901746E3,3.268068E3,2.139351E3,9.108639E2,-7.866145E1,-9.4648705E1,-7.194288E1,-9.449102E1,-6.84161E1,-1.2026486E1,-5.5581287E1,-7.791341E1,-4.0424675E1,3.488193E1,-2.9600763E1,-5.491153E1,4.2227394E1,6.732412E0,-2.3546701E1,-4.6245342E1,1.0101383E2,3.3008137E1,1.2197274E2,7.617101E1,4.022531E1,-1.2985879E0,1.3667513E1,-3.1005224E1,1.1176997E2,1.3547484E2,1.4010765E2,1.6785982E2,7.884121E1,1.3406999E2,4.5130095E-1,6.595337E1],"categories":[],"categories_nodes":[],"categories_segments":[],"categories_sizes":[],"default_left":[0,0,0,0,0,0,0,0,0,0,0,0,0,0,0,0,0,0,0,0,0,0,0,0,0,0,0,0,0,0,0,0,0,0,0,0,0,0,0,0,0,0,0,0,0,0,0,0,0,0,0,0,0,0,0,0,0,0,0,0,0,0,0],"id":12,"left_children":[1,3,5,7,9,11,13,15,17,19,21,23,25,27,29,31,33,35,37,39,41,43,45,47,49,51,53,55,57,59,61,-1,-1,-1,-1,-1,-1,-1,-1,-1,-1,-1,-1,-1,-1,-1,-1,-1,-1,-1,-1,-1,-1,-1,-1,-1,-1,-1,-1,-1,-1,-1,-1],"loss_changes":[2.0745263E10,2.2849715E9,1.659308E9,2.9491866E8,3.1818643E8,4.2252147E8,5.459804E8,4.1969664E7,9.315251E7,1.102929E8,1.9061531E8,1.9060045E8,2.8811538E7,4.2227507E8,1.3338528E8,1.5540736E7,3.0814976E7,1.0753754E8,5.6610816E7,1.13366424E8,4.2433536E7,8.718832E7,9.224776E6,8.797158E7,8.644634E7,9.607402E6,2.424063E7,1.4959104E7,2.7302912E7,4.272909E7,7.913675E7,0E0,0E0,0E0,0E0,0E0,0E0,0E0,0E0,0E0,0E0,0E0,0E0,0E0,0E0,0E0,0E0,0E0,0E0,0E0,0E0,0E0,0E0,0E0,0E0,0E0,0E0,0E0,0E0,0E0,0E0,0E0,0E0],"parents":[2147483647,0,0,1,1,2,2,3,3,4,4,5,5,6,6,7,7,8,8,9,9,10,10,11,11,12,12,13,13,14,14,15,15,16,16,17,17,18,18,19,19,20,20,21,21,22,22,23,23,24,24,25,25,26,26,27,27,28,28,29,29,30,30],"right_children":[2,4,6,8,10,12,14,16,18,20,22,24,26,28,30,32,34,36,38,40,42,44,46,48,50,52,54,56,58,60,62,-1,-1,-1,-1,-1,-1,-1,-1,-1,-1,-1,-1,-1,-1,-1,-1,-1,-1,-1,-1,-1,-1,-1,-1,-1,-1,-1,-1,-1,-1,-1,-1],"split_conditions":[6.45716E3,4.19258E3,1E4,3.31707E3,5.01988E3,6E0,6E0,2.75688E3,1E0,1E0,6E0,7.24993E3,6E0,1.084617E4,1.5E1,1E0,6E0,8E0,6E0,9E0,6E0,1E0,7E0,1E0,1E0,7E0,4E0,1.011701E4,1.199986E4,1.132174E4,1.9E1,-7.866145E1,-9.4648705E1,-7.194288E1,-9.449102E1,-6.84161E1,-1.2026486E1,-5.5581287E1,-7.791341E1,-4.0424675E1,3.488193E1,-2.9600763E1,-5.491153E1,4.2227394E1,6.732412E0,-2.3546701E1,-4.6245342E1,1.0101383E2,3.3008137E1,1.2197274E2,7.617101E1,4.022531E1,-1.2985879E0,1.3667513E1,-3.1005224E1,1.1176997E2,1.3547484E2,1.4010765E2,1.6785982E2,7.884121E1,1.3406999E2,4.5130095E-1,6.595337E1],"split_indices":[4,4,4,4,4,2,2,4,2,2,2,4,1,4,1,2,2,1,2,1,2,2,1,2,2,3,3,4,4,4,1,0,0,0,0,0,0,0,0,0,0,0,0,0,0,0,0,0,0,0,0,0,0,0,0,0,0,0,0,0,0,0,0],"split_type":[0,0,0,0,0,0,0,0,0,0,0,0,0,0,0,0,0,0,0,0,0,0,0,0,0,0,0,0,0,0,0,0,0,0,0,0,0,0,0,0,0,0,0,0,0,0,0,0,0,0,0,0,0,0,0,0,0,0,0,0,0,0,0],"sum_hessian":[1.1237E4,7.605E3,3.632E3,4.72E3,2.885E3,1.468E3,2.164E3,2.258E3,2.462E3,1.385E3,1.5E3,1.26E3,2.08E2,1.797E3,3.67E2,8.29E2,1.429E3,3.7E2,2.092E3,2.08E2,1.177E3,1.289E3,2.11E2,4.26E2,8.34E2,5.6E1,1.52E2,9.14E2,8.83E2,1.53E2,2.14E2,2.72E2,5.57E2,1.243E3,1.86E2,1.3E2,2.4E2,1.744E3,3.48E2,8.1E1,1.27E2,9.76E2,2.01E2,2.05E2,1.084E3,7.1E1,1.4E2,5.4E1,3.72E2,1.24E2,7.1E2,3.2E1,2.4E1,4.1E1,1.11E2,8.14E2,1E2,1.47E2,7.36E2,7.7E1,7.6E1,6.7E1,1.47E2],"tree_param":{"num_deleted":"0","num_feature":"5","num_nodes":"63","size_leaf_vector":"1"}},{"base_weights":[4.6476245E0,-8.406533E2,1.9900972E3,-1.2257462E3,-6.352198E1,1.6086771E3,2.8346948E3,-1.4533545E3,-9.1578516E2,6.714178E1,-8.4943604E2,1.0088221E3,1.8884011E3,3.0572192E3,1.6807716E3,-1.6652766E3,-1.3347803E3,-8.078528E2,-1.1730074E3,-1.8673514E2,4.8057928E2,-9.7070514E2,-4.9437445E2,2.0911533E3,8.162186E2,2.0696213E3,9.3042694E2,2.54613E3,3.1655803E3,2.5492495E3,6.610124E2,-7.1525566E1,-8.7960754E1,-4.7873806E1,-7.030596E1,-4.7552647E1,-3.3089966E1,-6.8723946E1,-5.398283E1,1.4599383E1,-1.45175495E1,6.3184772E1,1.8215317E1,-2.7656355E1,-5.257324E1,-5.4418726E0,-3.7042088E1,7.503364E1,1.3024283E2,4.92635E1,-3.3436399E0,9.161722E1,1.082857E2,6.674027E1,5.048262E0,1.4784616E2,1.17277565E2,8.238896E1,1.5956337E2,5.472826E1,1.5232855E2,2.6078455E1,7.441433E1],"categories":[],"categories_nodes":[],"categories_segments":[],"categories_sizes":[],"default_left":[0,0,0,0,0,0,0,0,0,0,0,0,0,0,0,0,0,0,0,0,0,0,0,0,0,0,0,0,0,0,0,0,0,0,0,0,0,0,0,0,0,0,0,0,0,0,0,0,0,0,0,0,0,0,0,0,0,0,0,0,0,0,0],"id":13,"left_children":[1,3,5,7,9,11,13,15,17,19,21,23,25,27,29,31,33,35,37,39,41,43,45,47,49,51,53,55,57,59,61,-1,-1,-1,-1,-1,-1,-1,-1,-1,-1,-1,-1,-1,-1,-1,-1,-1,-1,-1,-1,-1,-1,-1,-1,-1,-1,-1,-1,-1,-1,-1,-1],"loss_changes":[1.8884254E10,2.361744E9,1.0778511E9,3.7095936E8,2.6869533E8,3.8687334E8,2.6293453E8,7.419238E7,6.1157504E7,2.35625E8,1.5580736E7,1.523456E8,2.721961E8,4.0344576E7,1.497591E8,2.1455872E7,5.127552E7,3.2395136E7,1.0910144E7,6.908293E7,7.73008E7,8.759808E6,9.136528E6,2.9760832E7,9.396787E7,2.6287616E7,8.472562E7,6.083008E6,2.2695424E7,6.3222336E7,8.45238E6,0E0,0E0,0E0,0E0,0E0,0E0,0E0,0E0,0E0,0E0,0E0,0E0,0E0,0E0,0E0,0E0,0E0,0E0,0E0,0E0,0E0,0E0,0E0,0E0,0E0,0E0,0E0,0E0,0E0,0E0,0E0,0E0],"parents":[2147483647,0,0,1,1,2,2,3,3,4,4,5,5,6,6,7,7,8,8,9,9,10,10,11,11,12,12,13,13,14,14,15,15,16,16,17,17,18,18,19,19,20,20,21,21,22,22,23,23,24,24,25,25,26,26,27,27,28,28,29,29,30,30],"right_children":[2,4,6,8,10,12,14,16,18,20,22,24,26,28,30,32,34,36,38,40,42,44,46,48,50,52,54,56,58,60,62,-1,-1,-1,-1,-1,-1,-1,-1,-1,-1,-1,-1,-1,-1,-1,-1,-1,-1,-1,-1,-1,-1,-1,-1,-1,-1,-1,-1,-1,-1,-1,-1],"split_conditions":[6.84938E3,4.49691E3,1.084617E4,3.54916E3,6E0,8.5179E3,6E0,2.86609E3,5E0,5.67239E3,5.99554E3,1E0,6E0,1.2E4,1.067E0,1E0,1E0,3.97122E3,3.80832E3,1E0,1E0,4E0,6.27537E3,1.307E0,6E0,1E4,2.486E0,3E0,8.6E-1,8.94E-1,6.001E0,-7.1525566E1,-8.7960754E1,-4.7873806E1,-7.030596E1,-4.7552647E1,-3.3089966E1,-6.8723946E1,-5.398283E1,1.4599383E1,-1.45175495E1,6.3184772E1,1.8215317E1,-2.7656355E1,-5.257324E1,-5.4418726E0,-3.7042088E1,7.503364E1,1.3024283E2,4.92635E1,-3.3436399E0,9.161722E1,1.082857E2,6.674027E1,5.048262E0,1.4784616E2,1.17277565E2,8.238896E1,1.5956337E2,5.472826E1,1.5232855E2,2.6078455E1,7.441433E1],"split_indices":[4,4,4,4,2,4,2,4,2,4,4,2,2,4,0,2,2,4,4,2,2,3,4,0,2,4,0,3,0,0,0,0,0,0,0,0,0,0,0,0,0,0,0,0,0,0,0,0,0,0,0,0,0,0,0,0,0,0,0,0,0,0,0],"split_type":[0,0,0,0,0,0,0,0,0,0,0,0,0,0,0,0,0,0,0,0,0,0,0,0,0,0,0,0,0,0,0,0,0,0,0,0,0,0,0,0,0,0,0,0,0,0,0,0,0,0,0,0,0,0,0,0,0,0,0,0,0,0,0],"sum_hessian":[1.125E4,7.891E3,3.359E3,5.276E3,2.615E3,2.316E3,1.043E3,3.04E3,2.236E3,2.243E3,3.72E2,7.38E2,1.578E3,8.73E2,1.7E2,1.086E3,1.954E3,1.578E3,6.58E2,1.39E3,8.53E2,2.76E2,9.6E1,1.1E2,6.28E2,1.326E3,2.52E2,1.57E2,7.16E2,9.1E1,7.9E1,3.15E2,7.71E2,3.13E2,1.641E3,7.94E2,7.84E2,2.04E2,4.54E2,2.47E2,1.143E3,1.09E2,7.44E2,4.6E1,2.3E2,3.8E1,5.8E1,5.3E1,5.7E1,5.27E2,1.01E2,3.88E2,9.38E2,1.69E2,8.3E1,4.7E1,1.1E2,1.3E1,7.03E2,2.4E1,6.7E1,6.9E1,1E1],"tree_param":{"num_deleted":"0","num_feature":"5","num_nodes":"63","size_leaf_vector":"1"}},{"base_weights":[-2.638702E0,-8.423556E2,1.7851238E3,-1.1319401E3,-7.470649E1,1.05787E3,2.2725142E3,-1.3768881E3,-8.550821E2,-3.4953915E2,1.2285554E2,7.3918463E2,1.4385826E3,1.9256752E3,2.754086E3,-1.5265786E3,-1.2344991E3,-1.0486636E3,-7.5634247E2,-4.2165628E2,-1.3774438E2,-2.4026264E1,4.6391092E2,5.335717E2,1.0766147E3,8.8642377E2,1.5746711E3,1.8816527E3,2.1858499E3,5.220132E2,2.7940305E3,-7.793032E1,-5.4251137E1,-6.366479E1,-5.4115017E1,-5.4846527E1,-4.392306E1,-4.0783367E1,-2.8105946E1,-1.9440502E1,-5.0410778E1,1.1841738E2,-9.124012E0,2.7853376E1,-4.20283E0,-1.1959272E1,2.705516E1,1.7131727E1,4.4767086E1,8.121083E1,3.752414E1,4.87482E1,-4.1696636E1,1.5557976E2,7.5855675E1,1.0339518E2,9.047503E1,9.32752E1,1.2714711E2,7.447155E0,1.6227837E2,1.5534972E2,1.283315E2],"categories":[],"categories_nodes":[],"categories_segments":[],"categories_sizes":[],"default_left":[0,0,0,0,0,0,0,0,0,0,0,0,0,0,0,0,0,0,0,0,0,0,0,0,0,0,0,0,0,0,0,0,0,0,0,0,0,0,0,0,0,0,0,0,0,0,0,0,0,0,0,0,0,0,0,0,0,0,0,0,0,0,0],"id":14,"left_children":[1,3,5,7,9,11,13,15,17,19,21,23,25,27,29,31,33,35,37,39,41,43,45,47,49,51,53,55,57,59,61,-1,-1,-1,-1,-1,-1,-1,-1,-1,-1,-1,-1,-1,-1,-1,-1,-1,-1,-1,-1,-1,-1,-1,-1,-1,-1,-1,-1,-1,-1,-1,-1],"loss_changes":[1.685864E10,1.6985037E9,1.2697395E9,3.750651E8,1.1373981E8,1.7389094E8,3.5347354E8,6.0822016E7,4.903744E7,1.3321976E7,6.1076732E7,5.4027616E7,4.789773E7,1.0226688E7,7.851776E7,1.8532096E7,7.556096E6,6.249216E6,1.9475136E7,1.2188856E7,2.5545304E7,2.9802236E7,2.0047848E7,3.360923E7,5.18224E7,2.09194E7,4.172173E7,1.0744576E7,1.5274944E7,1.6789898E7,5.4724096E7,0E0,0E0,0E0,0E0,0E0,0E0,0E0,0E0,0E0,0E0,0E0,0E0,0E0,0E0,0E0,0E0,0E0,0E0,0E0,0E0,0E0,0E0,0E0,0E0,0E0,0E0,0E0,0E0,0E0,0E0,0E0,0E0],"parents":[2147483647,0,0,1,1,2,2,3,3,4,4,5,5,6,6,7,7,8,8,9,9,10,10,11,11,12,12,13,13,14,14,15,15,16,16,17,17,18,18,19,19,20,20,21,21,22,22,23,23,24,24,25,25,26,26,27,27,28,28,29,29,30,30],"right_children":[2,4,6,8,10,12,14,16,18,20,22,24,26,28,30,32,34,36,38,40,42,44,46,48,50,52,54,56,58,60,62,-1,-1,-1,-1,-1,-1,-1,-1,-1,-1,-1,-1,-1,-1,-1,-1,-1,-1,-1,-1,-1,-1,-1,-1,-1,-1,-1,-1,-1,-1,-1,-1],"split_conditions":[6.45716E3,4.62953E3,1E4,3.51347E3,5.20167E3,8.00011E3,1.199986E4,2.99977E3,3.82574E3,1.8E1,1.8E1,2.263E0,8.88E-1,1.084617E4,8.6E-1,1.6E1,1.5E1,1.6E1,1.7E1,5.973E0,7.96E-1,2E0,8.42E-1,1.9E1,3.198E0,8.82E-1,9.08E-1,7E0,6E0,2E4,9.11E-1,-7.793032E1,-5.4251137E1,-6.366479E1,-5.4115017E1,-5.4846527E1,-4.392306E1,-4.0783367E1,-2.8105946E1,-1.9440502E1,-5.0410778E1,1.1841738E2,-9.124012E0,2.7853376E1,-4.20283E0,-1.1959272E1,2.705516E1,1.7131727E1,4.4767086E1,8.121083E1,3.752414E1,4.87482E1,-4.1696636E1,1.5557976E2,7.5855675E1,1.0339518E2,9.047503E1,9.32752E1,1.2714711E2,7.447155E0,1.6227837E2,1.5534972E2,1.283315E2],"split_indices":[4,4,4,4,4,4,4,4,4,1,1,0,0,4,0,1,1,1,1,0,0,1,0,1,0,0,0,1,3,4,0,0,0,0,0,0,0,0,0,0,0,0,0,0,0,0,0,0,0,0,0,0,0,0,0,0,0,0,0,0,0,0,0],"split_type":[0,0,0,0,0,0,0,0,0,0,0,0,0,0,0,0,0,0,0,0,0,0,0,0,0,0,0,0,0,0,0,0,0,0,0,0,0,0,0,0,0,0,0,0,0,0,0,0,0,0,0,0,0,0,0,0,0,0,0,0,0,0,0],"sum_hessian":[1.1228E4,7.64E3,3.588E3,5.547E3,2.093E3,1.441E3,2.147E3,2.941E3,2.606E3,8.75E2,1.218E3,7.86E2,6.55E2,1.251E3,8.96E2,1.429E3,1.512E3,8.77E2,1.729E3,6.52E2,2.23E2,8.52E2,3.66E2,4.9E2,2.96E2,1.31E2,5.24E2,1.077E3,1.74E2,1.6E1,8.8E2,1.33E3,9.9E1,1.199E3,3.13E2,6.79E2,1.98E2,1.322E3,4.07E2,6.19E2,3.3E1,3E0,2.2E2,7.9E1,7.73E2,3.6E1,3.3E2,3.22E2,1.68E2,1.09E2,1.87E2,1.25E2,6E0,1.7E1,5.07E2,2.93E2,7.84E2,9.5E1,7.9E1,1.5E1,1E0,3.65E2,5.15E2],"tree_param":{"num_deleted":"0","num_feature":"5","num_nodes":"63","size_leaf_vector":"1"}},{"base_weights":[8.437036E-1,-7.568939E2,1.803018E3,-1.0773607E3,8.332323E0,1.4575963E3,2.5510276E3,-1.2812054E3,-7.502447E2,2.2504945E2,-5.1813E2,1.6382933E3,4.5357388E2,2.7770352E3,1.3809595E3,-1.4464319E3,-1.1272781E3,-6.476332E2,-1.0005783E3,5.103394E1,6.3703094E2,-2.3374828E2,-7.919426E2,1.1322062E3,1.8869147E3,-1.9651997E2,9.554142E2,2.423128E3,2.8487754E3,2.1228298E3,7.054379E2,-7.002645E1,-8.882435E1,-5.241219E1,-8.056593E1,-3.6347973E1,-1.8774387E1,-3.8500015E1,-5.78089E1,2.675968E1,-4.237905E0,6.4506584E1,2.5873285E1,5.551555E0,-2.2425955E1,-1.8506346E1,-4.8873775E1,1.0103248E2,4.7416744E1,8.245342E1,9.913222E1,2.6656937E1,-2.493624E1,5.6957886E1,-1.7347887E1,1.0912405E2,1.4202702E2,1.4774559E2,1.3524886E2,3.762886E1,1.18686134E2,-2.8943012E1,6.427127E1],"categories":[],"categories_nodes":[],"categories_segments":[],"categories_sizes":[],"default_left":[0,0,0,0,0,0,0,0,0,0,0,0,0,0,0,0,0,0,0,0,0,0,0,0,0,0,0,0,0,0,0,0,0,0,0,0,0,0,0,0,0,0,0,0,0,0,0,0,0,0,0,0,0,0,0,0,0,0,0,0,0,0,0],"id":15,"left_children":[1,3,5,7,9,11,13,15,17,19,21,23,25,27,29,31,33,35,37,39,41,43,45,47,49,51,53,55,57,59,61,-1,-1,-1,-1,-1,-1,-1,-1,-1,-1,-1,-1,-1,-1,-1,-1,-1,-1,-1,-1,-1,-1,-1,-1,-1,-1,-1,-1,-1,-1,-1,-1],"loss_changes":[1.5265763E10,1.929965E9,8.512584E8,3.68918E8,2.6526968E8,4.103634E8,2.7224525E8,8.5248E7,5.411699E7,1.1804285E8,5.260891E7,2.394455E8,1.13394184E8,1.5287296E7,8.419901E7,2.2419456E7,6.6138624E7,3.243328E7,2.128224E7,7.624385E7,3.7517504E7,2.4782016E7,2.6638144E7,1.018169E8,2.6011648E7,3.3782856E7,4.7298496E7,9.269696E6,3.011072E6,2.6060288E7,6.852787E7,0E0,0E0,0E0,0E0,0E0,0E0,0E0,0E0,0E0,0E0,0E0,0E0,0E0,0E0,0E0,0E0,0E0,0E0,0E0,0E0,0E0,0E0,0E0,0E0,0E0,0E0,0E0,0E0,0E0,0E0,0E0,0E0],"parents":[2147483647,0,0,1,1,2,2,3,3,4,4,5,5,6,6,7,7,8,8,9,9,10,10,11,11,12,12,13,13,14,14,15,15,16,16,17,17,18,18,19,19,20,20,21,21,22,22,23,23,24,24,25,25,26,26,27,27,28,28,29,29,30,30],"right_children":[2,4,6,8,10,12,14,16,18,20,22,24,26,28,30,32,34,36,38,40,42,44,46,48,50,52,54,56,58,60,62,-1,-1,-1,-1,-1,-1,-1,-1,-1,-1,-1,-1,-1,-1,-1,-1,-1,-1,-1,-1,-1,-1,-1,-1,-1,-1,-1,-1,-1,-1,-1,-1],"split_conditions":[6.84938E3,4.62953E3,1.084617E4,3.67059E3,5E0,6E0,6E0,3.07596E3,5E0,5.90374E3,6E0,8.5179E3,9.52475E3,1.2E4,1.5E1,6E0,6E0,1.7E1,9E0,1E0,1E0,9E0,7E0,1E0,1E4,6E0,1.011701E4,4E0,5E0,2E0,1.9E1,-7.002645E1,-8.882435E1,-5.241219E1,-8.056593E1,-3.6347973E1,-1.8774387E1,-3.8500015E1,-5.78089E1,2.675968E1,-4.237905E0,6.4506584E1,2.5873285E1,5.551555E0,-2.2425955E1,-1.8506346E1,-4.8873775E1,1.0103248E2,4.7416744E1,8.245342E1,9.913222E1,2.6656937E1,-2.493624E1,5.6957886E1,-1.7347887E1,1.0912405E2,1.4202702E2,1.4774559E2,1.3524886E2,3.762886E1,1.18686134E2,-2.8943012E1,6.427127E1],"split_indices":[4,4,4,4,2,2,2,4,2,4,2,4,4,4,1,2,2,1,1,2,2,1,1,2,4,1,4,2,3,3,1,0,0,0,0,0,0,0,0,0,0,0,0,0,0,0,0,0,0,0,0,0,0,0,0,0,0,0,0,0,0,0,0],"split_type":[0,0,0,0,0,0,0,0,0,0,0,0,0,0,0,0,0,0,0,0,0,0,0,0,0,0,0,0,0,0,0,0,0,0,0,0,0,0,0,0,0,0,0,0,0,0,0,0,0,0,0,0,0,0,0,0,0,0,0,0,0,0,0],"sum_hessian":[1.1177E4,7.869E3,3.308E3,5.546E3,2.323E3,2.265E3,1.043E3,3.415E3,2.131E3,1.646E3,6.77E2,1.919E3,3.46E2,8.73E2,1.7E2,1.643E3,1.772E3,1.514E3,6.17E2,1.158E3,4.88E2,3.33E2,3.44E2,6.34E2,1.285E3,1.51E2,1.95E2,1.53E2,7.2E2,8E1,9E1,1.447E3,1.96E2,1.526E3,2.46E2,1.171E3,3.43E2,2.51E2,3.66E2,2.53E2,9.05E2,7.4E1,4.14E2,1.28E2,2.05E2,1.06E2,2.38E2,1.07E2,5.27E2,3.74E2,9.11E2,4.4E1,1.07E2,1.71E2,2.4E1,1.01E2,5.2E1,4.03E2,3.17E2,1.3E1,6.7E1,2.8E1,6.2E1],"tree_param":{"num_deleted":"0","num_feature":"5","num_nodes":"63","size_leaf_vector":"1"}},{"base_weights":[1.8669597E0,-7.640365E2,1.6248115E3,-1.0637488E3,-1.349283E2,9.329E2,2.0309534E3,-1.2884958E3,-8.286554E2,5.876341E2,-2.536886E2,1.1289626E3,-2.1695514E2,2.2121582E3,1.0677875E3,-1.2376982E3,-1.6273917E3,-7.1968823E2,-1.0909161E3,-8.24548E2,1.267074E3,-4.1406656E2,1.4160661E2,1.9827184E3,9.865335E2,4.3060043E2,-4.7628E2,1.8149678E3,2.6137515E3,1.7714728E3,5.4842224E2,-7.008665E1,-5.5790936E1,-5.59584E1,-9.147058E1,-2.156058E1,-3.9705265E1,-4.1815914E1,-6.0697266E1,-5.2540596E1,-8.176206E0,4.106281E1,8.685932E1,-1.617592E1,-4.3549816E1,1.928919E1,-1.6319788E1,5.2259974E0,1.4139061E2,3.7895638E1,7.040151E1,7.354584E1,1.0004741E1,3.2551212E0,-3.403065E1,1.2793276E2,8.973663E1,1.1430495E2,1.3549852E2,6.550018E1,1.14666824E2,-2.1704878E1,4.6561195E1],"categories":[],"categories_nodes":[],"categories_segments":[],"categories_sizes":[],"default_left":[0,0,0,0,0,0,0,0,0,0,0,0,0,0,0,0,0,0,0,0,0,0,0,0,0,0,0,0,0,0,0,0,0,0,0,0,0,0,0,0,0,0,0,0,0,0,0,0,0,0,0,0,0,0,0,0,0,0,0,0,0,0,0],"id":16,"left_children":[1,3,5,7,9,11,13,15,17,19,21,23,25,27,29,31,33,35,37,39,41,43,45,47,49,51,53,55,57,59,61,-1,-1,-1,-1,-1,-1,-1,-1,-1,-1,-1,-1,-1,-1,-1,-1,-1,-1,-1,-1,-1,-1,-1,-1,-1,-1,-1,-1,-1,-1,-1,-1],"loss_changes":[1.3879548E10,1.430208E9,1.00413645E9,2.7040614E8,2.1030197E8,2.9918336E8,3.9120384E8,4.3175936E7,7.105958E7,3.330293E8,1.3344515E8,1.3581658E8,3.2782978E7,2.9784474E8,1.3023213E8,4.415872E7,3.2758144E7,3.784832E7,2.2038336E7,1.672912E7,4.7616096E7,6.1655296E7,6.960543E7,2.5525222E8,9.269389E7,1.3134407E7,1.5420806E7,9.809408E6,2.3471616E7,3.360096E7,7.863515E7,0E0,0E0,0E0,0E0,0E0,0E0,0E0,0E0,0E0,0E0,0E0,0E0,0E0,0E0,0E0,0E0,0E0,0E0,0E0,0E0,0E0,0E0,0E0,0E0,0E0,0E0,0E0,0E0,0E0,0E0,0E0,0E0],"parents":[2147483647,0,0,1,1,2,2,3,3,4,4,5,5,6,6,7,7,8,8,9,9,10,10,11,11,12,12,13,13,14,14,15,15,16,16,17,17,18,18,19,19,20,20,21,21,22,22,23,23,24,24,25,25,26,26,27,27,28,28,29,29,30,30],"right_children":[2,4,6,8,10,12,14,16,18,20,22,24,26,28,30,32,34,36,38,40,42,44,46,48,50,52,54,56,58,60,62,-1,-1,-1,-1,-1,-1,-1,-1,-1,-1,-1,-1,-1,-1,-1,-1,-1,-1,-1,-1,-1,-1,-1,-1,-1,-1,-1,-1,-1,-1,-1,-1],"split_conditions":[6.45716E3,4.42351E3,9.52475E3,3.425E3,1E0,6E0,6E0,6E0,5E0,7E0,5.67239E3,1E0,6E0,1.031441E4,1.5E1,2.86609E3,7E0,1E0,8E0,6E0,5.20167E3,6E0,5E0,7E0,8.09256E3,4E0,4E0,3E0,1.199986E4,1.199986E4,1.9E1,-7.008665E1,-5.5790936E1,-5.59584E1,-9.147058E1,-2.156058E1,-3.9705265E1,-4.1815914E1,-6.0697266E1,-5.2540596E1,-8.176206E0,4.106281E1,8.685932E1,-1.617592E1,-4.3549816E1,1.928919E1,-1.6319788E1,5.2259974E0,1.4139061E2,3.7895638E1,7.040151E1,7.354584E1,1.0004741E1,3.2551212E0,-3.403065E1,1.2793276E2,8.973663E1,1.1430495E2,1.3549852E2,6.550018E1,1.14666824E2,-2.1704878E1,4.6561195E1],"split_indices":[4,4,4,4,2,2,2,2,2,1,4,2,1,4,1,4,1,2,1,1,4,2,2,1,4,3,3,3,4,4,1,0,0,0,0,0,0,0,0,0,0,0,0,0,0,0,0,0,0,0,0,0,0,0,0,0,0,0,0,0,0,0,0],"split_type":[0,0,0,0,0,0,0,0,0,0,0,0,0,0,0,0,0,0,0,0,0,0,0,0,0,0,0,0,0,0,0,0,0,0,0,0,0,0,0,0,0,0,0,0,0,0,0,0,0,0,0,0,0,0,0,0,0,0,0,0,0,0,0],"sum_hessian":[1.1164E4,7.585E3,3.579E3,5.137E3,2.448E3,1.325E3,2.254E3,2.624E3,2.513E3,3.45E2,2.103E3,1.132E3,1.93E2,1.896E3,3.58E2,2.286E3,3.38E2,1.778E3,7.35E2,1.12E2,2.33E2,1.496E3,6.07E2,1.6E2,9.72E2,5.5E1,1.38E2,9.56E2,9.4E2,1.51E2,2.07E2,9.7E2,1.316E3,9.8E1,2.4E2,3.66E2,1.412E3,2.42E2,4.93E2,8.3E1,2.9E1,1.21E2,1.12E2,1.25E3,2.46E2,3.99E2,2.08E2,5E1,1.1E2,6.32E2,3.4E2,9E0,4.6E1,3.8E1,1E2,2.2E1,9.34E2,2.19E2,7.21E2,8.2E1,6.9E1,5.8E1,1.49E2],"tree_param":{"num_deleted":"0","num_feature":"5","num_nodes":"63","size_leaf_vector":"1"}},{"base_weights":[-6.294215E0,-7.279917E2,1.5209412E3,-1.0507166E3,-1.8494872E2,8.9923096E2,1.9372183E3,-1.2034142E3,-8.037577E2,4.1315503E2,-2.8575128E2,1.0704618E3,-1.4776675E2,2.1121882E3,1.0925997E3,-1.1277063E3,-1.4412878E3,-7.416558E2,-1.1588364E3,-6.0391425E2,1.1720182E3,-5.275258E2,-5.5825428E1,5.987931E2,1.2962585E3,4.6789E2,-3.4669577E2,1.8163937E3,2.5502212E3,1.643912E3,7.1346204E2,-6.56594E1,-5.028448E1,-6.1036983E1,-7.852743E1,-4.0277576E1,-2.9127155E1,-4.316534E1,-6.3536884E1,-4.9147766E1,-1.06552E0,3.3922356E1,9.565202E1,-2.252426E1,-4.5006954E1,3.0211847E0,-3.3241528E1,7.789082E1,2.275048E1,9.923423E1,5.906568E1,1.6570713E1,1.2477694E2,-2.6818928E1,1.5677531E1,1.2398351E2,8.8321075E1,1.4089474E2,1.247287E2,6.1404694E1,1.0216778E2,-1.0218673E1,5.206538E1],"categories":[],"categories_nodes":[],"categories_segments":[],"categories_sizes":[],"default_left":[0,0,0,0,0,0,0,0,0,0,0,0,0,0,0,0,0,0,0,0,0,0,0,0,0,0,0,0,0,0,0,0,0,0,0,0,0,0,0,0,0,0,0,0,0,0,0,0,0,0,0,0,0,0,0,0,0,0,0,0,0,0,0],"id":17,"left_children":[1,3,5,7,9,11,13,15,17,19,21,23,25,27,29,31,33,35,37,39,41,43,45,47,49,51,53,55,57,59,61,-1,-1,-1,-1,-1,-1,-1,-1,-1,-1,-1,-1,-1,-1,-1,-1,-1,-1,-1,-1,-1,-1,-1,-1,-1,-1,-1,-1,-1,-1,-1,-1],"loss_changes":[1.2299475E10,1.3278766E9,9.25034E8,1.7826816E8,1.7049869E8,2.5796032E8,3.14538E8,5.123072E7,3.925133E7,3.1560886E8,1.344433E8,1.3085939E8,2.5024032E7,2.2535066E8,7.616573E7,4.91712E7,1.8180992E7,1.5299136E7,7.798848E6,3.862445E7,8.428691E7,3.3439296E7,8.7898376E7,5.472365E7,6.373005E7,1.3009189E7,1.9454736E7,3.0853376E7,3.591168E6,2.240496E7,6.671355E7,0E0,0E0,0E0,0E0,0E0,0E0,0E0,0E0,0E0,0E0,0E0,0E0,0E0,0E0,0E0,0E0,0E0,0E0,0E0,0E0,0E0,0E0,0E0,0E0,0E0,0E0,0E0,0E0,0E0,0E0,0E0,0E0],"parents":[2147483647,0,0,1,1,2,2,3,3,4,4,5,5,6,6,7,7,8,8,9,9,10,10,11,11,12,12,13,13,14,14,15,15,16,16,17,17,18,18,19,19,20,20,21,21,22,22,23,23,24,24,25,25,26,26,27,27,28,28,29,29,30,30],"right_children":[2,4,6,8,10,12,14,16,18,20,22,24,26,28,30,32,34,36,38,40,42,44,46,48,50,52,54,56,58,60,62,-1,-1,-1,-1,-1,-1,-1,-1,-1,-1,-1,-1,-1,-1,-1,-1,-1,-1,-1,-1,-1,-1,-1,-1,-1,-1,-1,-1,-1,-1,-1,-1],"split_conditions":[6.45716E3,4.19258E3,1E4,3.51347E3,1E0,6E0,6E0,5E0,6E0,1E1,5.01988E3,7.24993E3,6E0,1.2E4,1.5E1,2.86609E3,9E0,1.5E1,7E0,6E0,5.20167E3,6E0,6E0,1E0,1E0,1E1,2.1E1,3E0,3E0,1.199986E4,1.9E1,-6.56594E1,-5.028448E1,-6.1036983E1,-7.852743E1,-4.0277576E1,-2.9127155E1,-4.316534E1,-6.3536884E1,-4.9147766E1,-1.06552E0,3.3922356E1,9.565202E1,-2.252426E1,-4.5006954E1,3.0211847E0,-3.3241528E1,7.789082E1,2.275048E1,9.923423E1,5.906568E1,1.6570713E1,1.2477694E2,-2.6818928E1,1.5677531E1,1.2398351E2,8.8321075E1,1.4089474E2,1.247287E2,6.1404694E1,1.0216778E2,-1.0218673E1,5.206538E1],"split_indices":[4,4,4,4,2,2,2,2,2,1,4,4,1,4,1,4,1,1,1,1,4,2,2,2,2,3,1,3,3,4,1,0,0,0,0,0,0,0,0,0,0,0,0,0,0,0,0,0,0,0,0,0,0,0,0,0,0,0,0,0,0,0,0],"split_type":[0,0,0,0,0,0,0,0,0,0,0,0,0,0,0,0,0,0,0,0,0,0,0,0,0,0,0,0,0,0,0,0,0,0,0,0,0,0,0,0,0,0,0,0,0,0,0,0,0,0,0,0,0,0,0,0,0,0,0,0,0,0,0],"sum_hessian":[1.1157E4,7.577E3,3.58E3,4.752E3,2.825E3,1.437E3,2.143E3,2.934E3,1.818E3,4.07E2,2.418E3,1.235E3,2.02E2,1.774E3,3.69E2,2.23E3,7.04E2,1.55E3,2.68E2,1.74E2,2.33E2,1.178E3,1.24E3,4.01E2,8.34E2,4.9E1,1.53E2,1.062E3,7.12E2,1.49E2,2.2E2,8.81E2,1.349E3,2.64E2,4.4E2,1.103E3,4.47E2,7.6E1,1.92E2,1.05E2,6.9E1,1.41E2,9.2E1,9.78E2,2E2,1.042E3,1.98E2,5.1E1,3.5E2,1.17E2,7.17E2,4.7E1,2E0,1.19E2,3.4E1,7.1E1,9.91E2,1.14E2,5.98E2,7.5E1,7.4E1,5.8E1,1.62E2],"tree_param":{"num_deleted":"0","num_feature":"5","num_nodes":"63","size_leaf_vector":"1"}},{"base_weights":[-6.57376E0,-6.7176495E2,1.47317E3,-9.4911975E2,-6.965444E1,8.4336444E2,1.8555779E3,-1.188712E3,-7.6678314E2,9.9030945E1,-4.8392563E2,1.01435077E3,-1.5957826E2,2.0135227E3,1.0825194E3,-1.4211333E3,-1.1293613E3,-6.6883984E2,-1.006529E3,-9.527597E1,4.8581476E2,-1.7834987E2,-6.758135E2,7.9397327E2,1.3507825E3,4.993312E2,-3.61929E2,1.7347104E3,2.4270474E3,1.717904E3,6.357178E2,-5.9935463E1,-7.8321884E1,-5.2969646E1,-6.700838E1,-3.8741695E1,-2.490551E1,-3.598348E1,-5.5789703E1,1.45803175E1,-9.667506E0,1.4094871E1,3.996656E1,2.8645103E0,-1.958168E1,-4.164303E1,-1.8016356E1,7.438112E1,3.3313717E1,8.776138E1,5.8507824E1,5.3530178E1,-1.8441221E1,-2.8916346E1,6.7593284E0,1.1732444E2,8.441079E1,1.2837067E2,1.15691895E2,6.852918E1,1.00885086E2,-8.162427E0,4.716331E1],"categories":[],"categories_nodes":[],"categories_segments":[],"categories_sizes":[],"default_left":[0,0,0,0,0,0,0,0,0,0,0,0,0,0,0,0,0,0,0,0,0,0,0,0,0,0,0,0,0,0,0,0,0,0,0,0,0,0,0,0,0,0,0,0,0,0,0,0,0,0,0,0,0,0,0,0,0,0,0,0,0,0,0],"id":18,"left_children":[1,3,5,7,9,11,13,15,17,19,21,23,25,27,29,31,33,35,37,39,41,43,45,47,49,51,53,55,57,59,61,-1,-1,-1,-1,-1,-1,-1,-1,-1,-1,-1,-1,-1,-1,-1,-1,-1,-1,-1,-1,-1,-1,-1,-1,-1,-1,-1,-1,-1,-1,-1,-1],"loss_changes":[1.1124705E10,1.3020193E9,8.4258765E8,2.3228672E8,1.7195642E8,2.27557E8,2.6399949E8,3.0191104E7,7.056973E7,1.3149198E8,4.162851E7,8.29303E7,2.60469E7,2.043602E8,1.045153E8,1.315072E7,2.57344E7,3.864787E7,2.67168E7,4.4260156E7,3.717456E7,1.3893698E7,2.1351584E7,5.986211E7,3.060096E7,2.3208716E7,1.6106824E7,2.687232E7,5.596416E6,1.3165856E7,5.421257E7,0E0,0E0,0E0,0E0,0E0,0E0,0E0,0E0,0E0,0E0,0E0,0E0,0E0,0E0,0E0,0E0,0E0,0E0,0E0,0E0,0E0,0E0,0E0,0E0,0E0,0E0,0E0,0E0,0E0,0E0,0E0,0E0],"parents":[2147483647,0,0,1,1,2,2,3,3,4,4,5,5,6,6,7,7,8,8,9,9,10,10,11,11,12,12,13,13,14,14,15,15,16,16,17,17,18,18,19,19,20,20,21,21,22,22,23,23,24,24,25,25,26,26,27,27,28,28,29,29,30,30],"right_children":[2,4,6,8,10,12,14,16,18,20,22,24,26,28,30,32,34,36,38,40,42,44,46,48,50,52,54,56,58,60,62,-1,-1,-1,-1,-1,-1,-1,-1,-1,-1,-1,-1,-1,-1,-1,-1,-1,-1,-1,-1,-1,-1,-1,-1,-1,-1,-1,-1,-1,-1,-1,-1],"split_conditions":[6.65018E3,4.49691E3,1E4,3.31707E3,5E0,6E0,6E0,2.43224E3,5E0,5.67239E3,9E0,8.34316E3,5E0,1.199986E4,1.5E1,1E0,5E0,3.9501E3,7E0,1E0,1.7E1,6E0,1.9E1,1E0,5E0,7E0,2E1,3E0,1.5E1,1.132174E4,1.9E1,-5.9935463E1,-7.8321884E1,-5.2969646E1,-6.700838E1,-3.8741695E1,-2.490551E1,-3.598348E1,-5.5789703E1,1.45803175E1,-9.667506E0,1.4094871E1,3.996656E1,2.8645103E0,-1.958168E1,-4.164303E1,-1.8016356E1,7.438112E1,3.3313717E1,8.776138E1,5.8507824E1,5.3530178E1,-1.8441221E1,-2.8916346E1,6.7593284E0,1.1732444E2,8.441079E1,1.2837067E2,1.15691895E2,6.852918E1,1.00885086E2,-8.162427E0,4.716331E1],"split_indices":[4,4,4,4,2,2,2,4,2,4,1,4,1,4,1,2,2,4,1,2,1,2,1,2,3,3,1,3,1,4,1,0,0,0,0,0,0,0,0,0,0,0,0,0,0,0,0,0,0,0,0,0,0,0,0,0,0,0,0,0,0,0,0],"split_type":[0,0,0,0,0,0,0,0,0,0,0,0,0,0,0,0,0,0,0,0,0,0,0,0,0,0,0,0,0,0,0,0,0,0,0,0,0,0,0,0,0,0,0,0,0,0,0,0,0,0,0,0,0,0,0,0,0,0,0,0,0,0,0],"sum_hessian":[1.13E4,7.796E3,3.504E3,5.337E3,2.459E3,1.325E3,2.179E3,2.304E3,3.033E3,1.748E3,7.11E2,1.132E3,1.93E2,1.808E3,3.71E2,4.64E2,1.84E3,2.156E3,8.77E2,1.164E3,5.84E2,2.75E2,4.36E2,6.86E2,4.46E2,4.5E1,1.48E2,1.083E3,7.25E2,1.52E2,2.19E2,1.87E2,2.77E2,1.386E3,4.54E2,1.328E3,8.28E2,2.44E2,6.33E2,2.35E2,9.29E2,3.55E2,2.29E2,1.31E2,1.44E2,2.9E2,1.46E2,1.05E2,5.81E2,1.35E2,3.11E2,2.7E1,1.8E1,1.03E2,4.5E1,7.3E1,1.01E3,3.14E2,4.11E2,7.3E1,7.9E1,6.1E1,1.58E2],"tree_param":{"num_deleted":"0","num_feature":"5","num_nodes":"63","size_leaf_vector":"1"}},{"base_weights":[-1.9823407E0,-5.9123315E2,1.5117091E3,-9.004636E2,-3.7383685E0,1.2381758E3,2.057074E3,-1.1362435E3,-7.395718E2,-2.6605E2,2.0853049E2,8.896666E2,1.4401447E3,2.4180024E3,1.8281696E3,-1.4184199E3,-1.0943352E3,-8.479881E2,-5.8512256E2,-3.364009E2,-6.20582E1,9.838492E1,4.5253094E2,6.989148E2,1.1940549E3,5.2568066E2,1.4674473E3,7.556755E2,2.4980767E3,1.6143905E3,2.1053506E3,-8.558534E1,-6.585642E1,-5.6276478E1,-4.387617E1,-4.8685493E1,-3.991453E1,-3.2562313E1,-2.2637333E1,-1.0546985E1,-2.3056856E1,8.677699E0,-1.693212E1,2.9851105E1,4.0336117E-1,5.24123E1,1.8797775E1,3.8170563E1,-1.8129827E1,7.066804E1,4.9678204E1,-4.9096786E1,3.8455486E1,8.534538E1,7.101179E1,1.3403044E2,1.9643566E1,1.2067228E2,1.480991E2,8.595426E1,1.8887156E0,1.2625319E2,9.521014E1],"categories":[],"categories_nodes":[],"categories_segments":[],"categories_sizes":[],"default_left":[0,0,0,0,0,0,0,0,0,0,0,0,0,0,0,0,0,0,0,0,0,0,0,0,0,0,0,0,0,0,0,0,0,0,0,0,0,0,0,0,0,0,0,0,0,0,0,0,0,0,0,0,0,0,0,0,0,0,0,0,0,0,0],"id":19,"left_children":[1,3,5,7,9,11,13,15,17,19,21,23,25,27,29,31,33,35,37,39,41,43,45,47,49,51,53,55,57,59,61,-1,-1,-1,-1,-1,-1,-1,-1,-1,-1,-1,-1,-1,-1,-1,-1,-1,-1,-1,-1,-1,-1,-1,-1,-1,-1,-1,-1,-1,-1,-1,-1],"loss_changes":[1.0011181E10,1.4677189E9,4.6660966E8,1.9995034E8,1.5523728E8,1.4632243E8,8.224614E7,2.3813632E7,5.223309E7,1.7874832E7,4.1370732E7,4.3989824E7,3.2335104E7,5.188864E7,3.4880256E7,5.885312E6,1.1673088E7,1.0769152E7,1.1101824E7,1.4409864E7,2.097725E7,4.786819E7,2.145652E7,3.2933984E7,1.1610496E7,1.5435121E7,1.212544E7,1.2914343E7,7.96672E6,6.0843456E7,1.866176E7,0E0,0E0,0E0,0E0,0E0,0E0,0E0,0E0,0E0,0E0,0E0,0E0,0E0,0E0,0E0,0E0,0E0,0E0,0E0,0E0,0E0,0E0,0E0,0E0,0E0,0E0,0E0,0E0,0E0,0E0,0E0,0E0],"parents":[2147483647,0,0,1,1,2,2,3,3,4,4,5,5,6,6,7,7,8,8,9,9,10,10,11,11,12,12,13,13,14,14,15,15,16,16,17,17,18,18,19,19,20,20,21,21,22,22,23,23,24,24,25,25,26,26,27,27,28,28,29,29,30,30],"right_children":[2,4,6,8,10,12,14,16,18,20,22,24,26,28,30,32,34,36,38,40,42,44,46,48,50,52,54,56,58,60,62,-1,-1,-1,-1,-1,-1,-1,-1,-1,-1,-1,-1,-1,-1,-1,-1,-1,-1,-1,-1,-1,-1,-1,-1,-1,-1,-1,-1,-1,-1,-1,-1],"split_conditions":[7.16606E3,4.49691E3,1.084617E4,3.2699E3,5.32408E3,9.22727E3,9.11E-1,2.14004E3,3.90235E3,1.8E1,1.8E1,2.326E0,7.91E-1,8.6E-1,1.879E0,8.54E-1,1.5E1,8.73E-1,1.5E1,8E0,9E0,3E0,3E0,1E1,3.387E0,9.87476E3,5E0,2E0,5E0,1.531E0,2.504E0,-8.558534E1,-6.585642E1,-5.6276478E1,-4.387617E1,-4.8685493E1,-3.991453E1,-3.2562313E1,-2.2637333E1,-1.0546985E1,-2.3056856E1,8.677699E0,-1.693212E1,2.9851105E1,4.0336117E-1,5.24123E1,1.8797775E1,3.8170563E1,-1.8129827E1,7.066804E1,4.9678204E1,-4.9096786E1,3.8455486E1,8.534538E1,7.101179E1,1.3403044E2,1.9643566E1,1.2067228E2,1.480991E2,8.595426E1,1.8887156E0,1.2625319E2,9.521014E1],"split_indices":[4,4,4,4,4,4,0,4,4,1,1,0,0,0,0,0,1,0,1,1,3,1,3,3,0,4,3,1,3,0,0,0,0,0,0,0,0,0,0,0,0,0,0,0,0,0,0,0,0,0,0,0,0,0,0,0,0,0,0,0,0,0,0],"split_type":[0,0,0,0,0,0,0,0,0,0,0,0,0,0,0,0,0,0,0,0,0,0,0,0,0,0,0,0,0,0,0,0,0,0,0,0,0,0,0,0,0,0,0,0,0,0,0,0,0,0,0,0,0,0,0,0,0,0,0,0,0,0,0],"sum_hessian":[1.1222E4,8.078E3,3.144E3,5.292E3,2.786E3,2.096E3,1.048E3,2.144E3,3.148E3,1.246E3,1.54E3,7.71E2,1.325E3,4.03E2,6.45E2,2.73E2,1.871E3,1.847E3,1.301E3,9.26E2,3.2E2,1.062E3,4.78E2,4.76E2,2.95E2,3.9E1,1.286E3,1.9E1,3.84E2,3.68E2,2.77E2,6.6E1,2.07E2,1.632E3,2.39E2,5.18E2,1.329E3,8.65E2,4.36E2,4.63E2,4.63E2,1.73E2,1.47E2,1.62E2,9E2,5.3E1,4.25E2,4.49E2,2.7E1,1.38E2,1.57E2,5E0,3.4E1,2.06E2,1.08E3,2E0,1.7E1,3.3E2,5.4E1,3.45E2,2.3E1,8.6E1,1.91E2],"tree_param":{"num_deleted":"0","num_feature":"5","num_nodes":"63","size_leaf_vector":"1"}},{"base_weights":[5.863868E0,-6.239742E2,1.3136678E3,-8.9924945E2,-1.6879698E2,7.113232E2,1.669599E3,-1.0863428E3,-7.420497E2,-4.4148987E2,2.764948E-2,5.135168E2,1.0332026E3,1.3795155E3,1.9991329E3,-1.3832808E3,-1.0461255E3,-8.196781E2,-6.03164E2,-4.5779352E2,2.1674231E2,-1.1645087E2,1.8969635E2,3.6333475E2,7.826333E2,2.951529E2,1.1412744E3,6.388943E2,1.4008693E3,4.6779028E2,2.0294008E3,-7.955711E1,-6.552082E1,-5.663534E1,-4.9465023E1,-4.4001446E1,-3.470392E1,-3.3788128E1,-2.126746E1,-2.5101603E1,-1.626748E1,-2.856581E1,3.9711987E1,-1.0280488E1,5.5438557E0,-7.4226823E0,1.4545239E1,1.0223399E1,3.4308357E1,5.5869812E1,2.4910583E1,-4.5043903E1,1.9269552E1,5.331515E1,8.51984E1,-3.5220715E1,3.4870033E1,7.819724E1,6.7049164E1,-1.2507242E1,6.771635E1,1.1825032E2,9.137007E1],"categories":[],"categories_nodes":[],"categories_segments":[],"categories_sizes":[],"default_left":[0,0,0,0,0,0,0,0,0,0,0,0,0,0,0,0,0,0,0,0,0,0,0,0,0,0,0,0,0,0,0,0,0,0,0,0,0,0,0,0,0,0,0,0,0,0,0,0,0,0,0,0,0,0,0,0,0,0,0,0,0,0,0],"id":20,"left_children":[1,3,5,7,9,11,13,15,17,19,21,23,25,27,29,31,33,35,37,39,41,43,45,47,49,51,53,55,57,59,61,-1,-1,-1,-1,-1,-1,-1,-1,-1,-1,-1,-1,-1,-1,-1,-1,-1,-1,-1,-1,-1,-1,-1,-1,-1,-1,-1,-1,-1,-1,-1,-1],"loss_changes":[9.218899E9,9.4635674E8,7.7877555E8,1.3763174E8,1.3111419E8,8.561472E7,2.1576602E8,2.4192256E7,2.7117056E7,1.1785904E7,3.8904588E7,3.366547E7,4.066099E7,1.838336E7,4.8553216E7,1.746784E6,8.202752E6,1.1820416E7,1.1614752E7,6.064912E6,1.2741509E7,2.2135524E7,2.297302E7,2.7606152E7,2.800744E7,7.578339E6,1.7082368E7,3.320576E6,9.4656E6,1.4341246E7,6.6656256E7,0E0,0E0,0E0,0E0,0E0,0E0,0E0,0E0,0E0,0E0,0E0,0E0,0E0,0E0,0E0,0E0,0E0,0E0,0E0,0E0,0E0,0E0,0E0,0E0,0E0,0E0,0E0,0E0,0E0,0E0,0E0,0E0],"parents":[2147483647,0,0,1,1,2,2,3,3,4,4,5,5,6,6,7,7,8,8,9,9,10,10,11,11,12,12,13,13,14,14,15,15,16,16,17,17,18,18,19,19,20,20,21,21,22,22,23,23,24,24,25,25,26,26,27,27,28,28,29,29,30,30],"right_children":[2,4,6,8,10,12,14,16,18,20,22,24,26,28,30,32,34,36,38,40,42,44,46,48,50,52,54,56,58,60,62,-1,-1,-1,-1,-1,-1,-1,-1,-1,-1,-1,-1,-1,-1,-1,-1,-1,-1,-1,-1,-1,-1,-1,-1,-1,-1,-1,-1,-1,-1,-1,-1],"split_conditions":[6.38296E3,4.19258E3,9.52475E3,3.2699E3,4.8349E3,8.00011E3,1.084617E4,2.14004E3,3.82574E3,2.3E1,5.67239E3,2.263E0,8.6E-1,7.91E-1,8.6E-1,8.54E-1,2.82975E3,1.4E1,1.5E1,1.7E1,4.42351E3,1.8E1,9.74E-1,1.9E1,3.387E0,7.91E-1,5.96E0,9.72189E3,7E0,1.9E1,9.11E-1,-7.955711E1,-6.552082E1,-5.663534E1,-4.9465023E1,-4.4001446E1,-3.470392E1,-3.3788128E1,-2.126746E1,-2.5101603E1,-1.626748E1,-2.856581E1,3.9711987E1,-1.0280488E1,5.5438557E0,-7.4226823E0,1.4545239E1,1.0223399E1,3.4308357E1,5.5869812E1,2.4910583E1,-4.5043903E1,1.9269552E1,5.331515E1,8.51984E1,-3.5220715E1,3.4870033E1,7.819724E1,6.7049164E1,-1.2507242E1,6.771635E1,1.1825032E2,9.137007E1],"split_indices":[4,4,4,4,4,4,4,4,4,1,4,0,0,0,0,0,4,1,1,1,4,1,0,1,0,0,0,4,1,1,0,0,0,0,0,0,0,0,0,0,0,0,0,0,0,0,0,0,0,0,0,0,0,0,0,0,0,0,0,0,0,0,0],"split_type":[0,0,0,0,0,0,0,0,0,0,0,0,0,0,0,0,0,0,0,0,0,0,0,0,0,0,0,0,0,0,0,0,0,0,0,0,0,0,0,0,0,0,0,0,0,0,0,0,0,0,0,0,0,0,0,0,0,0,0,0,0,0,0],"sum_hessian":[1.119E4,7.553E3,3.637E3,4.706E3,2.847E3,1.352E3,2.285E3,2.146E3,2.56E3,1.088E3,1.759E3,8.39E2,5.13E2,1.218E3,1.067E3,2.52E2,1.894E3,1.639E3,9.21E2,1.062E3,2.6E1,1.09E3,6.69E2,5.4E2,2.99E2,6.6E1,4.47E2,3.5E1,1.183E3,2.1E1,1.046E3,6E1,1.92E2,7.43E2,1.151E3,1.103E3,5.36E2,6.52E2,2.69E2,7.94E2,2.68E2,1.1E1,1.5E1,7.83E2,3.07E2,1.54E2,5.15E2,3.63E2,1.77E2,1.36E2,1.63E2,4E0,6.2E1,3.97E2,5E1,1E0,3.4E1,3.11E2,8.72E2,1.2E1,9E0,3.89E2,6.57E2],"tree_param":{"num_deleted":"0","num_feature":"5","num_nodes":"63","size_leaf_vector":"1"}},{"base_weights":[9.480816E0,-5.495905E2,1.3611783E3,-7.9654224E2,1.4173794E0,1.096656E3,1.9042523E3,-9.93546E2,-6.176571E2,1.857128E2,-4.39823E2,1.2531156E3,2.1598083E2,2.0479142E3,1.1951632E3,-9.3048126E2,-1.1970892E3,-2.449182E2,-6.819904E2,2.9997768E1,5.3565015E2,-1.152544E2,-6.49532E2,9.0747253E2,1.4197402E3,8.533777E2,-8.4095665E1,9.857076E2,2.0674695E3,2.0869526E3,6.742652E2,-4.921967E1,-3.1285324E1,-4.7495884E1,-6.565036E1,-4.3970245E1,7.3418794E0,-3.1059788E1,-4.8695908E1,2.1364887E1,-3.8088174E0,6.251306E1,2.0885834E1,6.8048835E0,-1.901218E1,-4.0397488E1,-1.7254934E1,8.212527E1,3.7424023E1,6.884762E1,9.5695335E1,-9.054346E1,4.738216E1,2.2640302E0,-6.487931E1,1.2997966E2,3.1074865E1,1.1358079E2,9.711261E1,5.436195E1,1.3471997E2,7.6445816E1,1.3777239E1],"categories":[],"categories_nodes":[],"categories_segments":[],"categories_sizes":[],"default_left":[0,0,0,0,0,0,0,0,0,0,0,0,0,0,0,0,0,0,0,0,0,0,0,0,0,0,0,0,0,0,0,0,0,0,0,0,0,0,0,0,0,0,0,0,0,0,0,0,0,0,0,0,0,0,0,0,0,0,0,0,0,0,0],"id":21,"left_children":[1,3,5,7,9,11,13,15,17,19,21,23,25,27,29,31,33,35,37,39,41,43,45,47,49,51,53,55,57,59,61,-1,-1,-1,-1,-1,-1,-1,-1,-1,-1,-1,-1,-1,-1,-1,-1,-1,-1,-1,-1,-1,-1,-1,-1,-1,-1,-1,-1,-1,-1,-1,-1],"loss_changes":[8.463781E9,1.0781023E9,4.6866944E8,1.921902E8,1.9955616E8,3.0369434E8,1.067561E8,3.2286464E7,6.865421E7,9.430701E7,4.9136096E7,1.0658278E8,6.3955212E7,1.6449024E7,8.360208E7,3.2098304E7,1.6287552E7,1.055202E8,4.282355E7,5.0609932E7,4.439717E7,1.903434E7,2.089312E7,7.029158E7,2.4048896E7,2.8588736E7,3.5854044E7,8.964646E6,1.7904128E7,3.7757824E7,3.944843E7,0E0,0E0,0E0,0E0,0E0,0E0,0E0,0E0,0E0,0E0,0E0,0E0,0E0,0E0,0E0,0E0,0E0,0E0,0E0,0E0,0E0,0E0,0E0,0E0,0E0,0E0,0E0,0E0,0E0,0E0,0E0,0E0],"parents":[2147483647,0,0,1,1,2,2,3,3,4,4,5,5,6,6,7,7,8,8,9,9,10,10,11,11,12,12,13,13,14,14,15,15,16,16,17,17,18,18,19,19,20,20,21,21,22,22,23,23,24,24,25,25,26,26,27,27,28,28,29,29,30,30],"right_children":[2,4,6,8,10,12,14,16,18,20,22,24,26,28,30,32,34,36,38,40,42,44,46,48,50,52,54,56,58,60,62,-1,-1,-1,-1,-1,-1,-1,-1,-1,-1,-1,-1,-1,-1,-1,-1,-1,-1,-1,-1,-1,-1,-1,-1,-1,-1,-1,-1,-1,-1,-1,-1],"split_conditions":[6.93294E3,4.62953E3,1.084617E4,3.425E3,5E0,6E0,6E0,5E0,1E0,5.95767E3,9E0,8.5179E3,7E0,8.6E-1,9.08E-1,1.5E1,7E0,8E0,6E0,1E0,1E0,6E0,1.9E1,1E0,1.011701E4,7.91E-1,1.011701E4,2E0,9.11E-1,8.94E-1,1E1,-4.921967E1,-3.1285324E1,-4.7495884E1,-6.565036E1,-4.3970245E1,7.3418794E0,-3.1059788E1,-4.8695908E1,2.1364887E1,-3.8088174E0,6.251306E1,2.0885834E1,6.8048835E0,-1.901218E1,-4.0397488E1,-1.7254934E1,8.212527E1,3.7424023E1,6.884762E1,9.5695335E1,-9.054346E1,4.738216E1,2.2640302E0,-6.487931E1,1.2997966E2,3.1074865E1,1.1358079E2,9.711261E1,5.436195E1,1.3471997E2,7.6445816E1,1.3777239E1],"split_indices":[4,4,4,4,2,2,2,2,2,4,1,4,1,0,0,1,1,1,2,2,2,2,1,2,4,0,4,1,0,0,1,0,0,0,0,0,0,0,0,0,0,0,0,0,0,0,0,0,0,0,0,0,0,0,0,0,0,0,0,0,0,0,0],"split_type":[0,0,0,0,0,0,0,0,0,0,0,0,0,0,0,0,0,0,0,0,0,0,0,0,0,0,0,0,0,0,0,0,0,0,0,0,0,0,0,0,0,0,0,0,0,0,0,0,0,0,0,0,0,0,0,0,0,0,0,0,0,0,0],"sum_hessian":[1.1198E4,7.922E3,3.276E3,5.47E3,2.452E3,2.205E3,1.071E3,2.601E3,2.869E3,1.73E3,7.22E2,1.872E3,3.33E2,8.89E2,1.82E2,1.99E3,6.11E2,4.23E2,2.446E3,1.198E3,5.32E2,2.84E2,4.38E2,6.11E2,1.261E3,1.06E2,2.27E2,1.7E1,8.72E2,6.6E1,1.16E2,1.689E3,3.01E2,1.98E2,4.13E2,1.61E2,2.62E2,2.027E3,4.19E2,2.52E2,9.46E2,7.4E1,4.58E2,1.46E2,1.38E2,2.87E2,1.51E2,1.07E2,5.04E2,1.164E3,9.7E1,3E0,1.03E2,2.06E2,2.1E1,2E0,1.5E1,3.25E2,5.47E2,2.6E1,4E1,3.6E1,8E1],"tree_param":{"num_deleted":"0","num_feature":"5","num_nodes":"63","size_leaf_vector":"1"}},{"base_weights":[1.3046614E0,-6.135757E2,1.1088289E3,-8.560399E2,-2.6218585E2,5.848751E2,1.5135269E3,-1.0356254E3,-7.5784436E2,-4.3402853E2,-4.75107E1,4.3306552E2,8.41294E2,1.2868802E3,1.8715562E3,-1.2202814E3,-9.9446625E2,-8.033383E2,-6.215161E2,-4.808676E2,-3.0051883E2,3.0303236E1,-3.0299283E2,9.059787E2,3.5993036E2,6.76863E2,1.1892202E3,1.1074209E3,1.3309045E3,3.8297647E2,1.8954547E3,-5.7324146E1,-7.602944E1,-5.1541462E1,-4.2111416E1,-4.736867E1,-3.8603664E1,-3.443128E1,-2.661746E1,-2.0463467E1,-2.814385E1,-7.769893E0,-2.2665096E1,-2.4747531E0,9.872066E0,-2.1481344E1,-2.3646628E-2,2.9146452E1,8.208092E1,-8.545062E0,2.1662178E1,6.059812E1,2.8803106E1,1.528366E1,6.439313E1,6.0131287E1,-6.563943E1,7.960714E1,6.338795E1,7.272758E-1,1.3852525E2,1.07831314E2,8.489234E1],"categories":[],"categories_nodes":[],"categories_segments":[],"categories_sizes":[],"default_left":[0,0,0,0,0,0,0,0,0,0,0,0,0,0,0,0,0,0,0,0,0,0,0,0,0,0,0,0,0,0,0,0,0,0,0,0,0,0,0,0,0,0,0,0,0,0,0,0,0,0,0,0,0,0,0,0,0,0,0,0,0,0,0],"id":22,"left_children":[1,3,5,7,9,11,13,15,17,19,21,23,25,27,29,31,33,35,37,39,41,43,45,47,49,51,53,55,57,59,61,-1,-1,-1,-1,-1,-1,-1,-1,-1,-1,-1,-1,-1,-1,-1,-1,-1,-1,-1,-1,-1,-1,-1,-1,-1,-1,-1,-1,-1,-1,-1,-1],"loss_changes":[7.6094356E9,6.119337E8,8.4495514E8,7.417958E7,1.0825261E8,6.736838E7,1.8017024E8,1.0186752E7,1.6568832E7,1.004864E7,2.5972554E7,3.7546224E7,3.615264E7,9.436928E6,3.0224384E7,4.218336E6,5.951872E6,8.54528E6,3.780288E6,6.845088E6,9.37484E6,1.3373781E7,1.1684138E7,3.373968E7,3.704515E7,2.3088704E7,1.7560288E7,6.5634304E7,1.6193152E7,1.3154292E7,4.051635E7,0E0,0E0,0E0,0E0,0E0,0E0,0E0,0E0,0E0,0E0,0E0,0E0,0E0,0E0,0E0,0E0,0E0,0E0,0E0,0E0,0E0,0E0,0E0,0E0,0E0,0E0,0E0,0E0,0E0,0E0,0E0,0E0],"parents":[2147483647,0,0,1,1,2,2,3,3,4,4,5,5,6,6,7,7,8,8,9,9,10,10,11,11,12,12,13,13,14,14,15,15,16,16,17,17,18,18,19,19,20,20,21,21,22,22,23,23,24,24,25,25,26,26,27,27,28,28,29,29,30,30],"right_children":[2,4,6,8,10,12,14,16,18,20,22,24,26,28,30,32,34,36,38,40,42,44,46,48,50,52,54,56,58,60,62,-1,-1,-1,-1,-1,-1,-1,-1,-1,-1,-1,-1,-1,-1,-1,-1,-1,-1,-1,-1,-1,-1,-1,-1,-1,-1,-1,-1,-1,-1,-1,-1],"split_conditions":[5.95767E3,3.99965E3,9.52475E3,3.01183E3,4.86234E3,7.66904E3,1.199986E4,2.14004E3,3.72119E3,1.7E1,4.26E0,3E0,1.9E1,8.65E-1,8.6E-1,5.932E0,1.4E1,8.58E-1,2.415E0,9E0,2.1E1,2.263E0,1.8E1,1.7E1,4E0,3E0,8.55E-1,1.011701E4,1.095E0,2E4,9.11E-1,-5.7324146E1,-7.602944E1,-5.1541462E1,-4.2111416E1,-4.736867E1,-3.8603664E1,-3.443128E1,-2.661746E1,-2.0463467E1,-2.814385E1,-7.769893E0,-2.2665096E1,-2.4747531E0,9.872066E0,-2.1481344E1,-2.3646628E-2,2.9146452E1,8.208092E1,-8.545062E0,2.1662178E1,6.059812E1,2.8803106E1,1.528366E1,6.439313E1,6.0131287E1,-6.563943E1,7.960714E1,6.338795E1,7.272758E-1,1.3852525E2,1.07831314E2,8.489234E1],"split_indices":[4,4,4,4,4,4,4,4,4,1,0,3,1,0,0,0,1,0,0,1,1,0,1,1,3,3,0,4,0,4,0,0,0,0,0,0,0,0,0,0,0,0,0,0,0,0,0,0,0,0,0,0,0,0,0,0,0,0,0,0,0,0,0],"split_type":[0,0,0,0,0,0,0,0,0,0,0,0,0,0,0,0,0,0,0,0,0,0,0,0,0,0,0,0,0,0,0,0,0,0,0,0,0,0,0,0,0,0,0,0,0,0,0,0,0,0,0,0,0,0,0,0,0,0,0,0,0,0,0],"sum_hessian":[1.1172E4,7.184E3,3.988E3,4.25E3,2.934E3,1.739E3,2.249E3,1.499E3,2.751E3,1.629E3,1.305E3,1.094E3,6.45E2,1.38E3,8.69E2,2.68E2,1.231E3,2.059E3,6.92E2,1.204E3,4.25E2,1.001E3,3.04E2,1.45E2,9.49E2,4.4E2,2.05E2,2.77E2,1.103E3,1.4E1,8.55E2,2.19E2,4.9E1,9.89E2,2.42E2,3.62E2,1.697E3,3.91E2,3.01E2,6.46E2,5.58E2,2.19E2,2.06E2,6.78E2,3.23E2,2.14E2,9E1,1.02E2,4.3E1,1.15E2,8.34E2,6.8E1,3.72E2,2.1E1,1.84E2,2.67E2,1E1,2.1E2,8.93E2,1.3E1,1E0,3.64E2,4.91E2],"tree_param":{"num_deleted":"0","num_feature":"5","num_nodes":"63","size_leaf_vector":"1"}},{"base_weights":[1.2383403E0,-5.6647534E2,1.0575673E3,-8.128199E2,-2.1726588E2,5.1024045E2,1.4128853E3,-9.814138E2,-7.0212866E2,-8.5396675E1,-5.3422015E2,6.730173E2,-4.0599442E2,1.5485293E3,6.993637E2,-7.87634E2,-1.0404651E3,-6.42847E2,-1.0548077E3,-2.9923163E2,1.2085174E2,-3.6184167E2,-7.081234E2,1.38751E3,5.5984186E2,1.2120408E1,-5.225844E2,1.2625989E3,1.8398379E3,1.2699594E3,3.9300934E2,-4.74102E1,-3.3483658E1,-5.9988636E1,-4.7295334E1,-1.8991102E1,-3.4918804E1,-5.729911E1,-3.963664E1,9.777836E-1,-1.9665886E1,2.5759642E1,9.0094405E-1,-2.4873018E1,-6.5333076E0,-1.907884E1,-3.8127316E1,1.1159585E2,6.3057636E1,2.1155788E1,4.027897E1,2.5508413E1,-2.5277464E1,2.7317198E1,-2.970613E1,6.000343E1,7.94036E1,-1.9483555E1,9.41978E1,3.2501534E1,1.2988307E2,-3.4184814E1,2.4480425E1],"categories":[],"categories_nodes":[],"categories_segments":[],"categories_sizes":[],"default_left":[0,0,0,0,0,0,0,0,0,0,0,0,0,0,0,0,0,0,0,0,0,0,0,0,0,0,0,0,0,0,0,0,0,0,0,0,0,0,0,0,0,0,0,0,0,0,0,0,0,0,0,0,0,0,0,0,0,0,0,0,0,0,0],"id":23,"left_children":[1,3,5,7,9,11,13,15,17,19,21,23,25,27,29,31,33,35,37,39,41,43,45,47,49,51,53,55,57,59,61,-1,-1,-1,-1,-1,-1,-1,-1,-1,-1,-1,-1,-1,-1,-1,-1,-1,-1,-1,-1,-1,-1,-1,-1,-1,-1,-1,-1,-1,-1,-1,-1],"loss_changes":[6.735144E9,6.282422E8,7.6278835E8,7.923942E7,1.2630525E8,2.3099555E8,2.292654E8,1.8576384E7,5.3451264E7,9.424043E7,2.6363488E7,1.0547718E8,1.1413372E7,1.641815E8,6.627621E7,6.941392E6,1.838784E7,3.2144448E7,7.956384E6,3.1470816E7,4.411044E7,1.3980572E7,7.546304E6,1.6283968E7,3.782733E7,1.3664777E7,1.4318444E7,1.8690304E7,9.791539E7,1.0778115E8,2.633696E7,0E0,0E0,0E0,0E0,0E0,0E0,0E0,0E0,0E0,0E0,0E0,0E0,0E0,0E0,0E0,0E0,0E0,0E0,0E0,0E0,0E0,0E0,0E0,0E0,0E0,0E0,0E0,0E0,0E0,0E0,0E0,0E0],"parents":[2147483647,0,0,1,1,2,2,3,3,4,4,5,5,6,6,7,7,8,8,9,9,10,10,11,11,12,12,13,13,14,14,15,15,16,16,17,17,18,18,19,19,20,20,21,21,22,22,23,23,24,24,25,25,26,26,27,27,28,28,29,29,30,30],"right_children":[2,4,6,8,10,12,14,16,18,20,22,24,26,28,30,32,34,36,38,40,42,44,46,48,50,52,54,56,58,60,62,-1,-1,-1,-1,-1,-1,-1,-1,-1,-1,-1,-1,-1,-1,-1,-1,-1,-1,-1,-1,-1,-1,-1,-1,-1,-1,-1,-1,-1,-1,-1,-1],"split_conditions":[6.06141E3,4.00905E3,9.22727E3,3.09265E3,5E0,6E0,6E0,1E0,6E0,4.8349E3,6E0,1E0,4E0,1.011701E4,9.08E-1,2.38024E3,2.70761E3,1E0,1E1,1E0,1E0,5.01988E3,4E0,2E0,2.415E0,1.142E0,7.98E-1,2.673E0,8.6E-1,8.94E-1,9.96E-1,-4.74102E1,-3.3483658E1,-5.9988636E1,-4.7295334E1,-1.8991102E1,-3.4918804E1,-5.729911E1,-3.963664E1,9.777836E-1,-1.9665886E1,2.5759642E1,9.0094405E-1,-2.4873018E1,-6.5333076E0,-1.907884E1,-3.8127316E1,1.1159585E2,6.3057636E1,2.1155788E1,4.027897E1,2.5508413E1,-2.5277464E1,2.7317198E1,-2.970613E1,6.000343E1,7.94036E1,-1.9483555E1,9.41978E1,3.2501534E1,1.2988307E2,-3.4184814E1,2.4480425E1],"split_indices":[4,4,4,4,2,2,2,2,2,4,2,2,3,4,0,4,4,2,3,2,2,4,3,3,0,0,0,0,0,0,0,0,0,0,0,0,0,0,0,0,0,0,0,0,0,0,0,0,0,0,0,0,0,0,0,0,0,0,0,0,0,0,0],"split_type":[0,0,0,0,0,0,0,0,0,0,0,0,0,0,0,0,0,0,0,0,0,0,0,0,0,0,0,0,0,0,0,0,0,0,0,0,0,0,0,0,0,0,0,0,0,0,0,0,0,0,0,0,0,0,0,0,0,0,0,0,0,0,0],"sum_hessian":[1.1229E4,7.304E3,3.925E3,4.282E3,3.022E3,1.546E3,2.379E3,1.694E3,2.588E3,2.135E3,8.87E2,1.313E3,2.33E2,1.998E3,3.81E2,3.99E2,1.295E3,2.218E3,3.7E2,1.048E3,1.087E3,4.47E2,4.4E2,1.78E2,1.135E3,5.1E1,1.82E2,1.011E3,9.87E2,1.32E2,2.49E2,1.66E2,2.33E2,4.78E2,8.17E2,3.88E2,1.83E3,2.72E2,9.8E1,2.39E2,8.09E2,2.24E2,8.63E2,2.81E2,1.66E2,6.4E1,3.76E2,2.1E1,1.57E2,7.31E2,4.04E2,2.6E1,2.5E1,1.1E1,1.71E2,8.52E2,1.59E2,1.9E1,9.68E2,9.1E1,4.1E1,2E1,2.29E2],"tree_param":{"num_deleted":"0","num_feature":"5","num_nodes":"63","size_leaf_vector":"1"}},{"base_weights":[1.7553632E0,-5.3055524E2,1.0028003E3,-7.7057275E2,-2.2523907E2,5.524053E2,1.3671384E3,-8.9032355E2,-6.4263495E2,-9.964781E1,-5.266324E2,6.995705E2,-3.3937628E2,1.5175436E3,6.237767E2,-8.564625E2,-1.1493682E3,-2.576689E2,-7.098398E2,-3.1314218E2,1.342056E2,-3.096741E2,-6.617925E2,1.3315386E3,5.979517E2,5.6339928E1,-6.4724457E2,1.2256284E3,1.7780652E3,1.0353766E3,3.3886664E2,-4.8853817E1,-3.9351936E1,-3.475531E1,-7.030499E1,-4.1662117E1,6.159942E0,-3.241861E1,-5.1704372E1,-4.321096E0,-1.8812874E1,1.2732798E0,1.9820047E1,-3.5289128E0,-1.979746E1,-3.7718494E1,-1.9135359E1,-4.536233E1,9.466707E1,2.0981464E1,4.4567852E1,2.8322193E1,-4.717674E0,-4.3935646E1,1.7273258E1,-7.116113E0,6.137089E1,1.0473904E2,8.499403E1,1.2186698E1,5.6812416E1,-8.454082E0,5.126652E1],"categories":[],"categories_nodes":[],"categories_segments":[],"categories_sizes":[],"default_left":[0,0,0,0,0,0,0,0,0,0,0,0,0,0,0,0,0,0,0,0,0,0,0,0,0,0,0,0,0,0,0,0,0,0,0,0,0,0,0,0,0,0,0,0,0,0,0,0,0,0,0,0,0,0,0,0,0,0,0,0,0,0,0],"id":24,"left_children":[1,3,5,7,9,11,13,15,17,19,21,23,25,27,29,31,33,35,37,39,41,43,45,47,49,51,53,55,57,59,61,-1,-1,-1,-1,-1,-1,-1,-1,-1,-1,-1,-1,-1,-1,-1,-1,-1,-1,-1,-1,-1,-1,-1,-1,-1,-1,-1,-1,-1,-1,-1,-1],"loss_changes":[5.963312E9,5.3521907E8,6.36758E8,6.2089216E7,1.2171861E8,2.284624E8,2.390999E8,1.7523584E7,5.1068736E7,1.13474776E8,2.7535648E7,9.508403E7,3.0128102E7,1.3357056E8,4.2217776E7,1.4889344E7,2.7128864E7,6.499099E7,3.2932736E7,1.6967192E7,3.092447E7,7.50128E6,1.4748416E7,2.6081536E8,6.701507E7,8.432199E6,3.22431E7,2.243072E6,1.9740416E7,1.1541504E7,7.548999E7,0E0,0E0,0E0,0E0,0E0,0E0,0E0,0E0,0E0,0E0,0E0,0E0,0E0,0E0,0E0,0E0,0E0,0E0,0E0,0E0,0E0,0E0,0E0,0E0,0E0,0E0,0E0,0E0,0E0,0E0,0E0,0E0],"parents":[2147483647,0,0,1,1,2,2,3,3,4,4,5,5,6,6,7,7,8,8,9,9,10,10,11,11,12,12,13,13,14,14,15,15,16,16,17,17,18,18,19,19,20,20,21,21,22,22,23,23,24,24,25,25,26,26,27,27,28,28,29,29,30,30],"right_children":[2,4,6,8,10,12,14,16,18,20,22,24,26,28,30,32,34,36,38,40,42,44,46,48,50,52,54,56,58,60,62,-1,-1,-1,-1,-1,-1,-1,-1,-1,-1,-1,-1,-1,-1,-1,-1,-1,-1,-1,-1,-1,-1,-1,-1,-1,-1,-1,-1,-1,-1,-1,-1],"split_conditions":[6.06141E3,3.9501E3,1E4,3.25617E3,5E0,6E0,6E0,6E0,1E0,4.8349E3,9E0,1E0,1.1E1,1.031441E4,1.5E1,2.70761E3,8E0,9E0,6E0,1E0,1.8E1,3E0,1.1E1,4E0,8.00011E3,4E0,2.2E1,2E0,3E0,2E0,2.1E1,-4.8853817E1,-3.9351936E1,-3.475531E1,-7.030499E1,-4.1662117E1,6.159942E0,-3.241861E1,-5.1704372E1,-4.321096E0,-1.8812874E1,1.2732798E0,1.9820047E1,-3.5289128E0,-1.979746E1,-3.7718494E1,-1.9135359E1,-4.536233E1,9.466707E1,2.0981464E1,4.4567852E1,2.8322193E1,-4.717674E0,-4.3935646E1,1.7273258E1,-7.116113E0,6.137089E1,1.0473904E2,8.499403E1,1.2186698E1,5.6812416E1,-8.454082E0,5.126652E1],"split_indices":[4,4,4,4,2,2,2,2,2,4,1,2,1,4,1,4,1,1,2,2,1,1,3,1,4,3,1,3,3,3,1,0,0,0,0,0,0,0,0,0,0,0,0,0,0,0,0,0,0,0,0,0,0,0,0,0,0,0,0,0,0,0,0],"split_type":[0,0,0,0,0,0,0,0,0,0,0,0,0,0,0,0,0,0,0,0,0,0,0,0,0,0,0,0,0,0,0,0,0,0,0,0,0,0,0,0,0,0,0,0,0,0,0,0,0,0,0,0,0,0,0,0,0,0,0,0,0,0,0],"sum_hessian":[1.1189E4,7.305E3,3.884E3,4.089E3,3.216E3,1.738E3,2.146E3,2.109E3,1.98E3,2.271E3,9.45E2,1.492E3,2.46E2,1.784E3,3.62E2,1.869E3,2.4E2,2.95E2,1.685E3,1.187E3,1.084E3,3.64E2,5.81E2,2.05E2,1.287E3,1.08E2,1.38E2,8.44E2,9.4E2,1.47E2,2.15E2,6.78E2,1.191E3,8.8E1,1.52E2,1.17E2,1.78E2,1.419E3,2.66E2,2.59E2,9.28E2,7.67E2,3.17E2,9.7E1,2.67E2,4.35E2,1.46E2,4.1E1,1.64E2,8.02E2,4.85E2,2.4E1,8.4E1,1.12E2,2.6E1,1E0,8.43E2,1.81E2,7.59E2,1.7E1,1.3E2,1.24E2,9.1E1],"tree_param":{"num_deleted":"0","num_feature":"5","num_nodes":"63","size_leaf_vector":"1"}},{"base_weights":[-8.086778E0,-4.3887424E2,1.0941564E3,-6.2883453E2,7.588417E1,1.2390996E3,3.4635437E2,-7.498704E2,-4.2181943E2,2.4276402E2,-3.5818466E2,1.0337817E3,1.7161754E3,-2.1068408E2,5.8879596E2,-4.9714114E2,-8.0945294E2,-3.752108E2,-6.902487E2,6.602524E2,1.4711066E2,2.4544658E2,-4.6456332E2,7.687014E2,1.1302122E3,5.1130704E2,1.7419783E3,-8.6429877E2,1.4574663E1,8.5834644E2,-1.3234608E2,-3.392875E1,-4.7628565E0,-4.7556194E1,-3.6507355E1,-9.275208E0,-2.072828E1,-2.0607834E1,-4.1017345E1,-2.871258E1,7.7478424E1,5.644491E-1,1.6273958E1,4.730055E0,8.993217E1,-1.2037086E1,-3.6312458E1,6.635333E1,3.2067177E1,4.4564495E1,5.9373604E1,1.2114243E2,6.0468154E0,8.243614E1,1.020281E2,-2.6694227E1,-9.71536E1,5.2200184E1,-2.1877378E1,-9.020834E1,4.641717E1,-1.2118351E2,8.4521765E-1],"categories":[],"categories_nodes":[],"categories_segments":[],"categories_sizes":[],"default_left":[0,0,0,0,0,0,0,0,0,0,0,0,0,0,0,0,0,0,0,0,0,0,0,0,0,0,0,0,0,0,0,0,0,0,0,0,0,0,0,0,0,0,0,0,0,0,0,0,0,0,0,0,0,0,0,0,0,0,0,0,0,0,0],"id":25,"left_children":[1,3,5,7,9,11,13,15,17,19,21,23,25,27,29,31,33,35,37,39,41,43,45,47,49,51,53,55,57,59,61,-1,-1,-1,-1,-1,-1,-1,-1,-1,-1,-1,-1,-1,-1,-1,-1,-1,-1,-1,-1,-1,-1,-1,-1,-1,-1,-1,-1,-1,-1,-1,-1],"loss_changes":[5.314331E9,7.869128E8,3.404539E8,1.4696448E8,1.57276E8,2.5623142E8,6.926928E7,5.543347E7,2.6902656E7,6.2519656E7,3.883476E7,4.6267136E7,2.3700992E7,2.2980856E7,6.9508744E7,5.170525E7,3.300032E7,1.3749872E7,1.1239248E7,3.214662E8,3.0933326E7,2.115048E7,2.9872056E7,3.434941E7,1.7410432E7,1.3138768E7,1.8187264E7,1.3220308E7,5.491185E7,5.0130576E7,3.355512E7,0E0,0E0,0E0,0E0,0E0,0E0,0E0,0E0,0E0,0E0,0E0,0E0,0E0,0E0,0E0,0E0,0E0,0E0,0E0,0E0,0E0,0E0,0E0,0E0,0E0,0E0,0E0,0E0,0E0,0E0,0E0,0E0],"parents":[2147483647,0,0,1,1,2,2,3,3,4,4,5,5,6,6,7,7,8,8,9,9,10,10,11,11,12,12,13,13,14,14,15,15,16,16,17,17,18,18,19,19,20,20,21,21,22,22,23,23,24,24,25,25,26,26,27,27,28,28,29,29,30,30],"right_children":[2,4,6,8,10,12,14,16,18,20,22,24,26,28,30,32,34,36,38,40,42,44,46,48,50,52,54,56,58,60,62,-1,-1,-1,-1,-1,-1,-1,-1,-1,-1,-1,-1,-1,-1,-1,-1,-1,-1,-1,-1,-1,-1,-1,-1,-1,-1,-1,-1,-1,-1,-1,-1],"split_conditions":[7.16606E3,4.86234E3,6E0,3.79086E3,5E0,1.132174E4,1E4,1E0,6E0,1E0,4E0,8.5179E3,8.6E-1,9.27E-1,2.486E0,1.4E1,2.99977E3,1E0,7E0,1E1,5.90374E3,6.78732E3,6E0,1E0,8.65E-1,2E0,2.003E0,8.73E-1,1.142E0,7.91E-1,2.535E0,-3.392875E1,-4.7628565E0,-4.7556194E1,-3.6507355E1,-9.275208E0,-2.072828E1,-2.0607834E1,-4.1017345E1,-2.871258E1,7.7478424E1,5.644491E-1,1.6273958E1,4.730055E0,8.993217E1,-1.2037086E1,-3.6312458E1,6.635333E1,3.2067177E1,4.4564495E1,5.9373604E1,1.2114243E2,6.0468154E0,8.243614E1,1.020281E2,-2.6694227E1,-9.71536E1,5.2200184E1,-2.1877378E1,-9.020834E1,4.641717E1,-1.2118351E2,8.4521765E-1],"split_indices":[4,4,2,4,2,4,4,2,2,2,1,4,0,0,0,1,4,2,1,1,4,4,2,2,0,1,0,0,0,0,0,0,0,0,0,0,0,0,0,0,0,0,0,0,0,0,0,0,0,0,0,0,0,0,0,0,0,0,0,0,0,0,0],"split_type":[0,0,0,0,0,0,0,0,0,0,0,0,0,0,0,0,0,0,0,0,0,0,0,0,0,0,0,0,0,0,0,0,0,0,0,0,0,0,0,0,0,0,0,0,0,0,0,0,0,0,0,0,0,0,0,0,0,0,0,0,0,0,0],"sum_hessian":[1.119E4,8.046E3,3.144E3,5.877E3,2.169E3,2.633E3,5.11E2,3.707E3,2.17E3,1.567E3,6.02E2,1.843E3,7.9E2,1.55E2,3.56E2,7.09E2,2.998E3,1.851E3,3.19E2,2.91E2,1.276E3,9E1,5.12E2,4.94E2,1.349E3,1.7E1,7.73E2,3.9E1,1.16E2,2.59E2,9.7E1,4.88E2,2.21E2,1.072E3,1.926E3,3.19E2,1.532E3,1.03E2,2.16E2,1.22E2,1.69E2,7.25E2,5.51E2,8.3E1,7E0,2.77E2,2.35E2,9E1,4.04E2,2.64E2,1.085E3,2E0,1.5E1,5.94E2,1.79E2,3.1E1,8E0,3.5E1,8.1E1,6E0,2.53E2,5E0,9.2E1],"tree_param":{"num_deleted":"0","num_feature":"5","num_nodes":"63","size_leaf_vector":"1"}},{"base_weights":[-9.187335E-1,-4.143459E2,1.0589489E3,-6.260791E2,-1.1758987E1,1.1850265E3,4.0547186E2,-8.244602E2,-5.2329034E2,1.3289952E2,-3.557261E2,9.585224E2,1.6027167E3,-1.712611E2,6.3505414E2,-6.481844E2,-8.791061E2,-2.2460861E2,-5.761249E2,-4.0967278E1,3.8334482E2,-5.8674324E1,-4.9203415E2,6.9498474E2,1.0640159E3,1.9629244E3,1.5695499E3,3.8192905E2,-3.9833722E2,1.0761741E3,3.8053052E2,-3.834738E1,-1.710347E1,-5.778462E1,-4.2235924E1,-4.3414337E1,7.1527247E0,-3.4949017E1,-2.330137E1,-7.125175E0,1.1352556E1,4.1560986E1,1.4852759E1,8.400248E0,-1.3653712E1,-3.149442E1,-9.722292E0,6.811891E1,2.8297659E1,7.5367836E1,5.2049557E1,6.2083088E1,1.11264015E2,6.660144E1,8.12542E1,3.0431736E1,-3.4299377E1,-3.067919E1,2.4080883E1,6.689944E1,2.6722391E1,-4.3090317E1,2.8418623E1],"categories":[],"categories_nodes":[],"categories_segments":[],"categories_sizes":[],"default_left":[0,0,0,0,0,0,0,0,0,0,0,0,0,0,0,0,0,0,0,0,0,0,0,0,0,0,0,0,0,0,0,0,0,0,0,0,0,0,0,0,0,0,0,0,0,0,0,0,0,0,0,0,0,0,0,0,0,0,0,0,0,0,0],"id":26,"left_children":[1,3,5,7,9,11,13,15,17,19,21,23,25,27,29,31,33,35,37,39,41,43,45,47,49,51,53,55,57,59,61,-1,-1,-1,-1,-1,-1,-1,-1,-1,-1,-1,-1,-1,-1,-1,-1,-1,-1,-1,-1,-1,-1,-1,-1,-1,-1,-1,-1,-1,-1,-1,-1],"loss_changes":[4.909348E9,6.8703526E8,2.5855002E8,1.0727565E8,1.3832413E8,2.4775731E8,6.763668E7,1.6778752E7,5.481907E7,8.5231544E7,3.3294848E7,4.682893E7,7.970048E6,1.8492112E7,4.0571024E7,1.5370384E7,1.2073088E7,1.24368984E8,3.9684416E7,3.1491244E7,3.0747952E7,1.2681883E7,2.3014928E7,4.1597456E7,1.0884224E7,1.1239776E7,9.073664E6,1.0827934E7,1.9993868E7,1.8148576E7,5.4863388E7,0E0,0E0,0E0,0E0,0E0,0E0,0E0,0E0,0E0,0E0,0E0,0E0,0E0,0E0,0E0,0E0,0E0,0E0,0E0,0E0,0E0,0E0,0E0,0E0,0E0,0E0,0E0,0E0,0E0,0E0,0E0,0E0],"parents":[2147483647,0,0,1,1,2,2,3,3,4,4,5,5,6,6,7,7,8,8,9,9,10,10,11,11,12,12,13,13,14,14,15,15,16,16,17,17,18,18,19,19,20,20,21,21,22,22,23,23,24,24,25,25,26,26,27,27,28,28,29,29,30,30],"right_children":[2,4,6,8,10,12,14,16,18,20,22,24,26,28,30,32,34,36,38,40,42,44,46,48,50,52,54,56,58,60,62,-1,-1,-1,-1,-1,-1,-1,-1,-1,-1,-1,-1,-1,-1,-1,-1,-1,-1,-1,-1,-1,-1,-1,-1,-1,-1,-1,-1,-1,-1,-1,-1],"split_conditions":[7.16606E3,4.47221E3,6E0,3.13237E3,5E0,1.031441E4,1E4,1E0,1E0,5.67239E3,7E0,8.5179E3,1E0,6E0,1.1E1,1.4E1,2.14004E3,8E0,3.67059E3,1.8E1,1E0,7E0,1.9E1,1E0,3E0,4E0,2E0,9.07053E3,2.1E1,7E0,4E0,-3.834738E1,-1.710347E1,-5.778462E1,-4.2235924E1,-4.3414337E1,7.1527247E0,-3.4949017E1,-2.330137E1,-7.125175E0,1.1352556E1,4.1560986E1,1.4852759E1,8.400248E0,-1.3653712E1,-3.149442E1,-9.722292E0,6.811891E1,2.8297659E1,7.5367836E1,5.2049557E1,6.2083088E1,1.11264015E2,6.660144E1,8.12542E1,3.0431736E1,-3.4299377E1,-3.067919E1,2.4080883E1,6.689944E1,2.6722391E1,-4.3090317E1,2.8418623E1],"split_indices":[4,4,2,4,2,4,4,2,2,4,1,4,2,1,1,1,4,1,4,1,2,3,1,2,3,1,2,4,1,3,3,0,0,0,0,0,0,0,0,0,0,0,0,0,0,0,0,0,0,0,0,0,0,0,0,0,0,0,0,0,0,0,0],"split_type":[0,0,0,0,0,0,0,0,0,0,0,0,0,0,0,0,0,0,0,0,0,0,0,0,0,0,0,0,0,0,0,0,0,0,0,0,0,0,0,0,0,0,0,0,0,0,0,0,0,0,0,0,0,0,0,0,0,0,0,0,0,0,0],"sum_hessian":[1.1202E4,8.059E3,3.143E3,5.281E3,2.778E3,2.634E3,5.09E2,1.8E3,3.481E3,1.956E3,8.22E2,1.71E3,9.24E2,1.45E2,3.64E2,4.29E2,1.371E3,5.24E2,2.957E3,1.155E3,8.01E2,2.59E2,5.63E2,4.91E2,1.219E3,7.3E1,8.51E2,4.2E1,1.03E2,1.32E2,2.32E2,3.08E2,1.21E2,1.48E2,1.223E3,1.9E2,3.34E2,1.395E3,1.562E3,8.38E2,3.17E2,1.28E2,6.73E2,1.26E2,1.33E2,3.84E2,1.79E2,7.8E1,4.13E2,5.7E1,1.162E3,2.1E1,5.2E1,1.66E2,6.85E2,3.5E1,7E0,8.3E1,2E1,8.8E1,4.4E1,3E1,2.02E2],"tree_param":{"num_deleted":"0","num_feature":"5","num_nodes":"63","size_leaf_vector":"1"}},{"base_weights":[1.0306119E1,-3.9328476E2,1.02329846E3,-5.824936E2,2.3431074E1,8.5735187E2,1.4617728E3,-7.3817096E2,-4.534423E2,1.7504866E2,-3.5074414E2,9.7457513E2,1.9007892E2,1.5702915E3,9.7412445E2,-6.82714E2,-9.193706E2,-4.0073126E2,-7.5003094E2,6.344664E1,4.3547375E2,-7.984644E1,-5.2523737E2,1.4302252E3,9.0929614E2,6.954095E2,-2.9329721E1,1.4666017E3,9.024823E1,1.7380765E3,4.228446E2,-3.60826E1,-2.2200895E1,-3.5341854E1,-5.097794E1,-9.266003E0,-2.2375383E1,-2.4294073E1,-4.495222E1,7.589845E0,-1.5013425E1,6.805213E1,5.6374946E0,7.306794E0,-1.5185248E1,-3.1576208E1,-1.2378507E1,4.1317296E0,9.0342155E1,2.7479324E1,5.162869E1,-9.02464E1,3.928792E1,-1.6727222E1,2.0092459E1,7.967931E1,2.1113419E1,-8.119139E1,9.32278E1,5.5949463E1,2.021783E0],"categories":[],"categories_nodes":[],"categories_segments":[],"categories_sizes":[],"default_left":[0,0,0,0,0,0,0,0,0,0,0,0,0,0,0,0,0,0,0,0,0,0,0,0,0,0,0,0,0,0,0,0,0,0,0,0,0,0,0,0,0,0,0,0,0,0,0,0,0,0,0,0,0,0,0,0,0,0,0,0,0],"id":27,"left_children":[1,3,5,7,9,11,13,15,17,19,21,23,25,27,29,31,33,35,37,39,41,43,45,47,49,51,53,55,-1,57,59,-1,-1,-1,-1,-1,-1,-1,-1,-1,-1,-1,-1,-1,-1,-1,-1,-1,-1,-1,-1,-1,-1,-1,-1,-1,-1,-1,-1,-1,-1],"loss_changes":[4.612055E9,6.360668E8,2.3260774E8,1.1112678E8,1.430249E8,1.8238003E8,4.5092096E7,2.4624896E7,4.716275E7,5.211313E7,3.432321E7,5.774195E7,3.8826256E7,1.4848384E7,6.791274E7,1.7599104E7,1.1757248E7,2.5913568E7,1.755152E7,4.043843E7,1.6054883E8,1.451257E7,1.2888128E7,1.2520976E8,7.654707E7,2.5363944E7,3.237696E7,6.616461E7,0E0,3.1942096E7,2.5511102E7,0E0,0E0,0E0,0E0,0E0,0E0,0E0,0E0,0E0,0E0,0E0,0E0,0E0,0E0,0E0,0E0,0E0,0E0,0E0,0E0,0E0,0E0,0E0,0E0,0E0,0E0,0E0,0E0,0E0,0E0],"parents":[2147483647,0,0,1,1,2,2,3,3,4,4,5,5,6,6,7,7,8,8,9,9,10,10,11,11,12,12,13,13,14,14,15,15,16,16,17,17,18,18,19,19,20,20,21,21,22,22,23,23,24,24,25,25,26,26,27,27,29,29,30,30],"right_children":[2,4,6,8,10,12,14,16,18,20,22,24,26,28,30,32,34,36,38,40,42,44,46,48,50,52,54,56,-1,58,60,-1,-1,-1,-1,-1,-1,-1,-1,-1,-1,-1,-1,-1,-1,-1,-1,-1,-1,-1,-1,-1,-1,-1,-1,-1,-1,-1,-1,-1,-1],"split_conditions":[7.08187E3,4.62953E3,1.199986E4,3.3852E3,5E0,6E0,6E0,5E0,6E0,1.8E1,9E0,1E0,7E0,1.187E0,9.08E-1,1.5E1,6E0,1E0,9E0,4.713E0,1E0,6E0,2E1,5E0,8.5179E3,7.91E-1,2E1,1.121E0,9.024823E1,8.6E-1,1.1E1,-3.60826E1,-2.2200895E1,-3.5341854E1,-5.097794E1,-9.266003E0,-2.2375383E1,-2.4294073E1,-4.495222E1,7.589845E0,-1.5013425E1,6.805213E1,5.6374946E0,7.306794E0,-1.5185248E1,-3.1576208E1,-1.2378507E1,4.1317296E0,9.0342155E1,2.7479324E1,5.162869E1,-9.02464E1,3.928792E1,-1.6727222E1,2.0092459E1,7.967931E1,2.1113419E1,-8.119139E1,9.32278E1,5.5949463E1,2.021783E0],"split_indices":[4,4,4,4,2,2,2,2,2,1,1,2,1,0,0,1,1,2,1,0,2,2,1,1,4,0,1,0,0,0,1,0,0,0,0,0,0,0,0,0,0,0,0,0,0,0,0,0,0,0,0,0,0,0,0,0,0,0,0,0,0],"split_type":[0,0,0,0,0,0,0,0,0,0,0,0,0,0,0,0,0,0,0,0,0,0,0,0,0,0,0,0,0,0,0,0,0,0,0,0,0,0,0,0,0,0,0,0,0,0,0,0,0,0,0,0,0,0,0,0,0,0,0,0,0],"sum_hessian":[1.1279E4,8.066E3,3.213E3,5.547E3,2.519E3,2.333E3,8.8E2,2.512E3,3.035E3,1.793E3,7.26E2,1.984E3,3.49E2,7.18E2,1.62E2,1.927E3,5.85E2,2.579E3,4.56E2,1.256E3,5.37E2,2.85E2,4.41E2,2.46E2,1.738E3,1.05E2,2.44E2,5.03E2,2.15E2,6.7E1,9.5E1,1.655E3,2.72E2,1.9E2,